SVM-light Version V6.02
0 # kernel type
3 # kernel parameter -d 
1 # kernel parameter -g 
1 # kernel parameter -s 
1 # kernel parameter -r 
empty# kernel parameter -u 
132 # highest feature index 
609 # number of training documents 
479 # number of support vectors plus 1 
-16.655063 # threshold b, each following line is a SV (starting with alpha*y)
-0.0060000000000000001249000902703301 1:0 2:0 3:0 4:0 5:0 6:0 7:0 8:0 9:0 10:0 11:0.25788936 12:0 13:0 14:0 15:0 16:1 17:0 18:0 19:0 20:0 21:0 22:0 23:0 24:0 25:0 26:0 27:0 28:0 29:1 30:0 31:0 32:0 33:0 34:0 35:0 36:0 37:2003 38:0.26402733 39:1 40:1 41:0 42:1 43:0 44:0 45:0 46:0 47:0 48:0 49:0.5 50:0.5 51:0 52:0 53:0.5 54:0 55:0 56:1 57:0.33225182 58:0 59:1 60:0.0070108348 61:0 62:1 63:0 64:0 65:0 66:0 67:0 68:2004 69:0.3078067 70:0.84700733 71:0 72:0 73:0 74:0 75:0.22952794 76:0 77:0 78:0 79:0 80:0 81:2005 82:0 83:0 84:0 85:0 86:0 87:0 88:0 89:0 90:0 91:0 92:0 93:0 94:0 95:1 96:0 97:0 98:0 99:0 100:0 101:0 102:0 103:0 104:0 105:0 106:0 107:0 108:0.5 109:0 110:0 111:0 112:0 113:0 114:0 115:0 116:0 117:0 118:0 119:0 120:0 121:0 122:0 123:0 124:0 125:1 126:0 127:0 128:0.76505566 129:0 130:0 131:0 132:0 # 
0.0063000000000000000444089209850063 1:0 2:0 3:0 4:0 5:0 6:0 7:0 8:0 9:0 10:0 11:0.28470421 12:0 13:0 14:1 15:0 16:0.5 17:0.5 18:0 19:0 20:0 21:0 22:0 23:0 24:0 25:0 26:0 27:1 28:0 29:0 30:0 31:1 32:0 33:0 34:1 35:0 36:0 37:2004 38:0.29584256 39:0 40:0 41:0 42:0 43:0 44:0 45:0 46:1 47:0 48:0 49:0 50:1 51:0 52:0 53:0 54:0.5 55:0 56:1 57:0.46616843 58:0 59:1 60:0.013224985 61:0 62:0 63:0 64:0 65:0 66:0 67:1 68:2005 69:0.42115659 70:0.90360749 71:0 72:0 73:1 74:0 75:0.24309951 76:0 77:0 78:0 79:0 80:0 81:2006 82:0 83:0 84:0 85:0 86:0 87:0 88:0 89:0 90:0 91:0 92:0 93:0 94:0 95:0 96:0 97:0 98:0 99:0 100:0.5 101:0 102:0 103:0 104:0 105:0 106:0 107:0 108:0 109:1 110:0 111:0 112:0 113:0 114:0 115:0 116:0 117:0 118:0 119:0 120:0 121:0 122:1 123:0 124:0 125:0 126:0 127:0 128:0.73227865 129:0 130:0 131:0 132:0 # 
-0.0043425773856142768636345863342285 1:0 2:0 3:0 4:1 5:0 6:0 7:0 8:0 9:1 10:0 11:0.28734672 12:0 13:0 14:0 15:0 16:0 17:1 18:0 19:0 20:0 21:0 22:0 23:0 24:0 25:0 26:0 27:0 28:0 29:0 30:0 31:1 32:0 33:0 34:0 35:0 36:0 37:1995 38:0.29738453 39:0 40:0 41:0 42:0 43:0 44:0 45:0 46:0 47:0 48:0 49:0 50:0 51:0 52:0 53:0 54:0 55:0 56:0 57:0.47019261 58:0 59:0 60:0.020213056 61:1 62:0 63:0 64:1 65:0 66:0 67:0 68:1995 69:0 70:0.80926746 71:1 72:0 73:0 74:0 75:0.47267136 76:0 77:0 78:0 79:0 80:0 81:1995 82:0 83:0 84:0 85:0 86:1 87:0 88:0 89:0 90:1 91:1 92:0 93:1 94:0 95:0 96:0 97:1 98:0 99:0 100:0 101:0 102:0 103:0 104:0 105:1 106:1 107:0 108:0 109:0 110:0 111:1 112:0 113:0 114:1 115:0 116:1 117:0 118:0 119:1 120:0 121:1 122:0 123:0 124:0 125:0 126:0 127:0 128:0.83881438 129:0 130:1 131:0 132:0 # 
-0.0012586232796820695511996746063232 1:0 2:0 3:0 4:0 5:0 6:0 7:0 8:0 9:0 10:1 11:0.10371053 12:0 13:0 14:0 15:1 16:0.5 17:0.5 18:1 19:0 20:0 21:0 22:0 23:1 24:0 25:0 26:0 27:0 28:0 29:0 30:0 31:1 32:0 33:0 34:1 35:0 36:0 37:2003 38:0.10319453 39:0 40:0 41:0 42:0 43:0 44:0 45:0 46:0 47:0 48:0 49:0.5 50:0 51:0 52:0 53:0 54:0 55:0.5 56:1 57:0.11795635 58:1 59:0 60:0.00687426 61:0 62:1 63:0 64:1 65:0 66:0 67:0 68:2003 69:0 70:0.59879363 71:0 72:1 73:1 74:0 75:0.20450345 76:0 77:0 78:0 79:0 80:0 81:2003 82:0 83:0 84:0 85:0 86:0 87:0 88:0 89:0 90:1 91:0 92:0 93:0 94:0 95:0 96:1 97:0 98:0 99:0 100:0 101:0 102:1 103:0 104:0 105:0 106:1 107:0 108:0 109:1 110:0 111:0 112:0 113:0 114:0 115:0 116:0 117:0 118:0 119:1 120:0 121:0 122:0 123:0 124:0 125:1 126:0 127:0 128:0.76012951 129:0 130:0 131:0 132:0 # 
0.0063000000000000000444089209850063 1:0 2:0 3:0 4:0 5:0 6:0 7:0 8:0 9:0 10:0 11:0.68636233 12:0 13:0 14:0 15:0 16:0 17:1 18:0 19:0 20:0 21:0 22:0 23:0 24:1 25:0 26:0 27:0 28:1 29:0 30:0 31:1 32:0 33:0 34:0 35:1 36:0 37:2009 38:0.69419652 39:0 40:1 41:0 42:0 43:0 44:0 45:0 46:0 47:0 48:0 49:0 50:1 51:0 52:0 53:0 54:0 55:0 56:0 57:0.38602322 58:0 59:1 60:0 61:0 62:0 63:0 64:0 65:0 66:0 67:0 68:2009 69:0.59710878 70:0.8942548 71:0 72:0 73:0 74:0 75:0.49393487 76:0 77:1 78:0 79:0 80:0 81:2009 82:0 83:0 84:0 85:0 86:0 87:0 88:1 89:0 90:0 91:0 92:0 93:0 94:0 95:0 96:1 97:0 98:0 99:0 100:0 101:0 102:0 103:0 104:0 105:1 106:0 107:0 108:0 109:0 110:0 111:0 112:0 113:0 114:0 115:0 116:0 117:0 118:0 119:0 120:0 121:0 122:1 123:0 124:0 125:0 126:0 127:0 128:0.83572024 129:0 130:0 131:0 132:0 # 
0.0063000000000000000444089209850063 1:1 2:0 3:0 4:0 5:0 6:0 7:0 8:0 9:0 10:0 11:0.30710211 12:0 13:0 14:1 15:0 16:0 17:1 18:1 19:0 20:0 21:0 22:0 23:0 24:0 25:0 26:1 27:0 28:0 29:0 30:1 31:1 32:0 33:0 34:0 35:0 36:1 37:2009 38:0.31393623 39:0 40:0 41:0 42:0 43:0 44:0 45:0 46:0 47:0 48:0 49:0 50:1 51:0 52:0 53:0 54:0 55:0 56:0 57:0.36486012 58:0 59:1 60:0 61:0 62:0 63:0 64:0 65:0 66:0 67:0 68:2009 69:0 70:0.85339737 71:0 72:1 73:0 74:0 75:0.86214095 76:0 77:0 78:0 79:0 80:0 81:2009 82:0 83:0 84:0 85:0 86:0 87:0 88:0 89:0 90:1 91:0 92:1 93:0 94:0 95:0 96:0 97:0 98:1 99:0 100:0 101:0 102:0 103:0 104:0 105:0 106:1 107:0 108:0 109:0 110:1 111:0 112:0 113:0 114:0 115:0 116:0 117:0 118:0 119:0 120:0 121:0 122:0 123:0 124:0 125:0 126:0 127:0 128:0.69536 129:0 130:0 131:0 132:0 # 
0.0063000000000000000444089209850063 1:0 2:0 3:0 4:0 5:0 6:0 7:0 8:0 9:0 10:0 11:0.23674926 12:0 13:0 14:0 15:0 16:0.5 17:0.5 18:0 19:0 20:0 21:0 22:0 23:0 24:0 25:0 26:0 27:0 28:0 29:0 30:0 31:1 32:0 33:0 34:0 35:0 36:1 37:2009 38:0.23859467 39:0 40:0 41:0 42:0 43:0 44:0 45:0 46:1 47:0 48:0 49:0 50:0 51:0 52:0 53:0.5 54:0 55:0 56:0 57:0.47022411 58:0 59:0 60:0.11813712 61:0 62:0 63:0 64:1 65:1 66:1 67:0 68:2009 69:0.42466542 70:0.80093139 71:0 72:0 73:0 74:0 75:0.91009635 76:0 77:0 78:0 79:0 80:1 81:2009 82:0 83:0 84:0 85:0 86:0 87:1 88:0 89:0 90:0 91:0 92:0 93:0 94:1 95:0 96:0 97:0 98:0 99:0 100:0 101:0 102:0 103:0.5 104:0 105:0 106:0 107:0 108:0 109:0 110:0 111:0 112:0 113:0 114:0 115:0 116:0 117:0 118:0 119:0 120:0 121:0 122:0 123:0 124:0 125:0 126:0 127:0 128:0.030472392 129:0 130:1 131:0 132:0 # 
-0.0060000000000000001249000902703301 1:0 2:0 3:0 4:0 5:0 6:0 7:0 8:0 9:0 10:0 11:0.16941364 12:0 13:0 14:0 15:0 16:0 17:1 18:0 19:0 20:0 21:0 22:0 23:0 24:0 25:0 26:0 27:0 28:1 29:0 30:0 31:1 32:0 33:0 34:0 35:0 36:0 37:1959 38:0.17410541 39:0 40:0 41:0 42:0 43:0 44:0 45:0 46:0 47:0 48:0 49:0 50:0 51:0 52:0 53:0 54:0 55:1 56:0 57:0.35363019 58:0 59:0 60:0 61:0 62:0 63:0 64:0 65:0 66:0 67:0 68:1959 69:0 70:0.74172688 71:0 72:0 73:1 74:0 75:0.18255995 76:0 77:0 78:0 79:0 80:0 81:1959 82:0 83:0 84:0 85:0 86:0 87:1 88:0 89:0 90:0 91:0 92:0 93:0 94:1 95:1 96:0 97:0 98:0 99:0 100:0 101:0 102:0 103:0 104:0 105:1 106:0 107:0 108:0 109:0 110:0 111:0 112:0 113:0 114:0 115:0 116:0 117:0 118:0 119:1 120:0 121:0 122:0 123:0 124:0 125:0 126:0 127:0 128:0.69929099 129:0 130:0 131:1 132:0 # 
-0.0060000000000000001249000902703301 1:1 2:0 3:0 4:0 5:1 6:0 7:0 8:0 9:1 10:0 11:0.34307301 12:0 13:0 14:1 15:1 16:1 17:0 18:1 19:0 20:0 21:0 22:0 23:1 24:1 25:0 26:1 27:0 28:0 29:0 30:1 31:1 32:0 33:0 34:1 35:0 36:0 37:2009 38:0.36007807 39:0 40:1 41:0 42:0 43:0 44:0 45:1 46:1 47:0 48:0 49:0 50:1 51:0 52:0 53:0 54:1 55:0 56:1 57:0.25992662 58:0 59:0 60:0.032413729 61:0 62:0 63:1 64:0 65:1 66:0 67:1 68:2009 69:0.52482224 70:0.89150512 71:1 72:1 73:1 74:1 75:0.4703404 76:0 77:0 78:1 79:0 80:0 81:2009 82:0 83:1 84:1 85:0 86:0 87:0 88:0 89:0 90:1 91:0 92:1 93:0 94:0 95:0 96:0 97:0 98:0 99:0 100:0 101:0 102:0 103:0 104:0 105:0 106:1 107:0 108:0 109:0 110:1 111:0 112:1 113:0 114:1 115:1 116:0 117:0 118:0 119:1 120:0 121:1 122:0 123:0 124:0 125:0 126:0 127:1 128:0.83643341 129:0 130:0 131:0 132:1 # 
0.0063000000000000000444089209850063 1:0 2:0 3:0 4:0 5:0 6:0 7:0 8:0 9:0 10:0 11:0.21521118 12:0 13:0 14:0 15:0 16:0 17:1 18:0 19:1 20:0 21:0 22:0 23:0 24:0 25:0 26:0 27:0 28:0 29:0 30:0 31:0 32:1 33:0 34:0 35:0 36:0 37:2009 38:0.22817177 39:0 40:0 41:1 42:0 43:0 44:0 45:1 46:0 47:0 48:1 49:0 50:1 51:0 52:0 53:0 54:0 55:0 56:0 57:0.90737271 58:0 59:0 60:0.0048711644 61:1 62:0 63:0 64:0 65:0 66:0 67:0 68:2009 69:0.25383472 70:0.88645118 71:0 72:0 73:1 74:0 75:0.22036459 76:0 77:0 78:0 79:0 80:1 81:2009 82:0 83:0 84:0 85:0 86:0 87:1 88:0 89:0 90:0 91:0 92:0 93:0 94:0 95:0 96:0 97:0 98:0 99:0 100:1 101:0 102:0 103:0 104:0 105:0 106:0 107:0 108:0 109:0 110:0 111:0 112:0 113:1 114:0 115:0 116:0 117:0 118:0 119:1 120:0 121:0 122:0 123:0 124:0 125:0 126:0 127:0 128:0.73442465 129:0 130:0 131:0 132:0 # 
-0.0060000000000000001249000902703301 1:1 2:0 3:0 4:0 5:1 6:0 7:0 8:0 9:0 10:0 11:0.29875782 12:0 13:0 14:1 15:0 16:0 17:1 18:0 19:0 20:0 21:0 22:0 23:1 24:1 25:0 26:0 27:0 28:0 29:0 30:0 31:1 32:0 33:0 34:1 35:0 36:1 37:2001 38:0.31807417 39:0 40:0 41:0 42:0 43:0 44:0 45:1 46:1 47:0 48:0 49:0 50:1 51:0 52:0 53:0 54:0 55:0 56:1 57:0.19328724 58:0 59:1 60:0 61:0 62:1 63:0 64:0 65:1 66:0 67:0 68:2001 69:0 70:0.89805007 71:0 72:0 73:1 74:0 75:0.1126247 76:0 77:0 78:0 79:1 80:0 81:2001 82:1 83:0 84:0 85:0 86:0 87:0 88:0 89:0 90:0 91:0 92:0 93:0 94:0 95:0 96:0 97:0 98:0 99:0 100:1 101:0 102:0 103:0 104:0 105:0 106:1 107:0 108:0 109:1 110:0 111:0 112:0 113:0 114:0 115:0 116:0 117:0 118:0 119:0 120:0 121:0 122:0 123:1 124:0 125:0 126:0 127:0 128:0.67910367 129:0 130:0 131:0 132:0 # 
0.0063000000000000000444089209850063 1:0 2:1 3:0 4:0 5:0 6:0 7:0 8:0 9:0 10:0 11:0.15789191 12:0 13:0 14:1 15:0 16:0.33333334 17:0.66666669 18:0 19:1 20:0 21:0 22:0 23:0 24:0 25:0 26:0 27:0 28:1 29:0 30:0 31:1 32:0 33:0 34:0 35:0 36:0 37:1953 38:0.1639948 39:0 40:1 41:0 42:0 43:0 44:0 45:0 46:0 47:0 48:0 49:0.33333334 50:0.66666669 51:0 52:0 53:0 54:0 55:0 56:0 57:0.19220047 58:0 59:0 60:0.013885095 61:1 62:0 63:0 64:1 65:1 66:0 67:0 68:1955 69:0 70:0.74550921 71:0 72:0 73:0 74:0 75:0.4759289 76:0 77:0 78:0 79:0 80:1 81:1956 82:0 83:1 84:0 85:0 86:0 87:1 88:0 89:1 90:0 91:0 92:0 93:0 94:0 95:1 96:0 97:0 98:0 99:0.33333334 100:0 101:0 102:0.33333334 103:0 104:0 105:0 106:0 107:0.33333334 108:0 109:0 110:0 111:0 112:0 113:0 114:0 115:0 116:1 117:1 118:1 119:1 120:0 121:0 122:0 123:0 124:1 125:0 126:0 127:0 128:0.7932027 129:1 130:0 131:0 132:0 # 
0.0063000000000000000444089209850063 1:0 2:0 3:0 4:0 5:1 6:1 7:0 8:0 9:1 10:0 11:0.33914569 12:0 13:0 14:0 15:1 16:0.25 17:0.75 18:1 19:0 20:0 21:0 22:0 23:0 24:1 25:0 26:1 27:0 28:0 29:0 30:1 31:1 32:0 33:0 34:0 35:0 36:0 37:2008 38:0.34542942 39:1 40:0 41:0 42:0 43:0 44:0 45:0 46:1 47:0 48:0 49:0 50:0.75 51:0 52:0 53:0 54:0 55:0.25 56:1 57:0.3699435 58:1 59:0 60:0.094521075 61:0 62:1 63:1 64:0 65:0 66:0 67:1 68:2008 69:0.5400039 70:0.86703426 71:0 72:0 73:1 74:1 75:0.18827671 76:1 77:0 78:0 79:0 80:0 81:2008 82:0 83:0 84:0 85:0 86:0 87:0 88:1 89:0 90:0 91:0 92:1 93:0 94:0 95:0 96:1 97:1 98:0 99:0 100:0.25 101:0 102:0 103:0.25 104:0 105:0 106:1 107:0.5 108:0 109:1 110:1 111:1 112:0 113:0 114:0 115:0 116:0 117:0 118:0 119:1 120:0 121:0 122:0 123:0 124:0 125:1 126:0 127:0 128:0.77759266 129:1 130:0 131:0 132:1 # 
0.0063000000000000000444089209850063 1:1 2:0 3:0 4:0 5:0 6:0 7:0 8:0 9:1 10:0 11:0.24648939 12:0 13:0 14:1 15:0 16:0.60000002 17:0.40000001 18:0 19:0 20:0 21:0 22:1 23:1 24:0 25:0 26:1 27:1 28:1 29:1 30:1 31:1 32:0 33:0 34:0 35:0 36:1 37:2003 38:0.24915031 39:0 40:0 41:0 42:0 43:1 44:0 45:1 46:0 47:0 48:0 49:0 50:1 51:0 52:0 53:0 54:0 55:0 56:1 57:0.41429389 58:0 59:0 60:0.044933077 61:0 62:0 63:0 64:1 65:0 66:0 67:0 68:2007 69:0.43300545 70:0.82336426 71:0 72:1 73:0 74:1 75:0.4703404 76:0 77:0 78:0 79:0 80:0 81:2010 82:0 83:1 84:0 85:0 86:0 87:0 88:0 89:0 90:1 91:1 92:0 93:1 94:1 95:1 96:0 97:0 98:0 99:0.2 100:0.2 101:0.2 102:0 103:0 104:0 105:0 106:1 107:0.2 108:0.2 109:0 110:1 111:1 112:0 113:0 114:0 115:1 116:0 117:0 118:0 119:1 120:0 121:0 122:0 123:0 124:0 125:0 126:1 127:1 128:0.83643341 129:0 130:0 131:1 132:0 # 
-0.0060000000000000001249000902703301 1:0 2:0 3:0 4:0 5:0 6:0 7:0 8:0 9:1 10:1 11:0.34674281 12:1 13:0 14:0 15:1 16:0 17:1 18:0 19:0 20:0 21:0 22:0 23:0 24:0 25:0 26:0 27:0 28:0 29:0 30:0 31:1 32:1 33:0 34:0 35:0 36:0 37:1994 38:0.36294731 39:0 40:0 41:0 42:1 43:0 44:0 45:1 46:0 47:0 48:0 49:0 50:0.5 51:0 52:0 53:0 54:0 55:0.5 56:1 57:0.17659721 58:0 59:0 60:0.013384321 61:0 62:1 63:0 64:0 65:1 66:0 67:0 68:1999.5 69:0 70:0.75926071 71:0 72:0 73:1 74:0 75:0.207921 76:0 77:0 78:0 79:1 80:0 81:2005 82:0 83:0 84:0 85:0 86:0 87:0 88:0 89:0 90:1 91:0 92:0 93:0 94:0 95:0 96:1 97:0 98:0 99:0 100:0.5 101:0.5 102:0 103:0 104:0 105:0 106:1 107:0 108:0 109:0 110:0 111:0 112:0 113:1 114:0 115:0 116:0 117:0 118:0 119:1 120:0 121:0 122:0 123:0 124:0 125:0 126:0 127:0 128:0.69816309 129:0 130:0 131:0 132:0 # 
-0.0060000000000000001249000902703301 1:0 2:0 3:0 4:0 5:0 6:0 7:0 8:0 9:0 10:0 11:0.23684119 12:0 13:0 14:0 15:0 16:0 17:1 18:0 19:0 20:0 21:0 22:0 23:0 24:0 25:0 26:0 27:0 28:1 29:0 30:0 31:1 32:1 33:0 34:0 35:0 36:0 37:1930 38:0.24419259 39:0 40:0 41:0 42:0 43:0 44:0 45:0 46:0 47:0 48:0 49:0 50:0.2 51:0 52:0 53:0.40000001 54:0 55:0 56:1 57:0.31267318 58:0 59:0 60:0.012124799 61:1 62:0 63:0 64:1 65:1 66:1 67:0 68:1951.6 69:0 70:0.66320699 71:1 72:0 73:1 74:0 75:0.19958244 76:0 77:0 78:0 79:0 80:1 81:1993 82:0 83:0 84:0 85:0 86:0 87:1 88:0 89:0 90:0 91:0 92:0 93:0 94:1 95:1 96:0 97:0 98:0 99:0 100:0 101:0 102:0 103:0.2 104:0 105:0.2 106:0 107:0 108:0.2 109:0 110:0 111:0 112:0 113:0 114:0 115:0 116:1 117:0 118:0 119:0 120:1 121:0 122:0 123:0 124:0 125:1 126:0 127:0 128:0.69436049 129:0 130:0 131:0 132:0 # 
0.0063000000000000000444089209850063 1:1 2:0 3:0 4:0 5:0 6:0 7:0 8:0 9:0 10:0 11:0.24861991 12:0 13:0 14:1 15:0 16:0 17:1 18:0 19:0 20:0 21:0 22:1 23:1 24:0 25:0 26:0 27:1 28:1 29:1 30:0 31:1 32:0 33:0 34:0 35:0 36:1 37:2009 38:0.25756669 39:0 40:0 41:0 42:0 43:0 44:0 45:1 46:1 47:1 48:0 49:0 50:1 51:0 52:0 53:0 54:0 55:0 56:1 57:0.69583613 58:0 59:0 60:0 61:0 62:0 63:0 64:1 65:0 66:0 67:1 68:2009 69:0.45404276 70:0.81970453 71:0 72:1 73:1 74:1 75:0.10952081 76:0 77:0 78:1 79:0 80:0 81:2009 82:0 83:1 84:1 85:0 86:1 87:0 88:0 89:0 90:1 91:1 92:0 93:1 94:1 95:0 96:0 97:1 98:0 99:1 100:0 101:0 102:0 103:0 104:0 105:0 106:1 107:0 108:0 109:1 110:0 111:0 112:0 113:0 114:0 115:0 116:0 117:1 118:0 119:1 120:0 121:0 122:1 123:1 124:1 125:0 126:0 127:1 128:0.70811605 129:0 130:0 131:0 132:0 # 
-0.0060000000000000001249000902703301 1:0 2:0 3:0 4:0 5:0 6:0 7:0 8:0 9:1 10:0 11:0.50629151 12:0 13:0 14:1 15:0 16:0 17:1 18:0 19:0 20:0 21:0 22:0 23:0 24:1 25:1 26:0 27:1 28:0 29:0 30:0 31:1 32:0 33:0 34:0 35:0 36:1 37:2010 38:0.50377357 39:0 40:0 41:0 42:0 43:0 44:0 45:0 46:0 47:0 48:0 49:0 50:1 51:0 52:0 53:0 54:0 55:0 56:0 57:0.42772466 58:0 59:0 60:0.39533824 61:0 62:0 63:0 64:0 65:0 66:0 67:0 68:2010 69:0 70:0.81033248 71:0 72:0 73:0 74:0 75:0.097880028 76:0 77:0 78:1 79:0 80:0 81:2010 82:0 83:0 84:0 85:0 86:0 87:0 88:0 89:0 90:1 91:0 92:0 93:1 94:0 95:0 96:0 97:0 98:0 99:0 100:0 101:0 102:0 103:0 104:0 105:1 106:0 107:0 108:0 109:0 110:0 111:0 112:0 113:0 114:0 115:0 116:0 117:0 118:0 119:0 120:0 121:0 122:1 123:0 124:0 125:0 126:0 127:0 128:0.81618774 129:1 130:0 131:0 132:0 # 
-0.0060000000000000001249000902703301 1:0 2:0 3:0 4:0 5:0 6:0 7:0 8:0 9:0 10:0 11:0.41893017 12:0 13:0 14:1 15:0 16:0 17:1 18:0 19:0 20:0 21:0 22:0 23:0 24:0 25:0 26:0 27:0 28:1 29:1 30:0 31:1 32:0 33:0 34:1 35:1 36:1 37:2006 38:0.42144436 39:0 40:0 41:0 42:0 43:0 44:0 45:0 46:0 47:1 48:0 49:0 50:0 51:0 52:0 53:0 54:0 55:0 56:1 57:0.39040703 58:0 59:0 60:0 61:1 62:0 63:0 64:0 65:0 66:0 67:0 68:2006 69:0.33470654 70:0.92151886 71:0 72:0 73:1 74:0 75:0.19801626 76:0 77:1 78:0 79:0 80:1 81:2006 82:0 83:0 84:0 85:0 86:0 87:1 88:1 89:0 90:0 91:0 92:0 93:0 94:0 95:0 96:0 97:0 98:1 99:0 100:0 101:0 102:0 103:0 104:0 105:0 106:0 107:0 108:0 109:1 110:0 111:0 112:0 113:0 114:0 115:0 116:0 117:0 118:0 119:1 120:0 121:0 122:1 123:0 124:0 125:0 126:0 127:0 128:0.68898535 129:0 130:0 131:0 132:0 # 
-0.0060000000000000001249000902703301 1:0 2:0 3:0 4:0 5:1 6:0 7:0 8:0 9:0 10:0 11:0.12254528 12:1 13:0 14:1 15:0 16:0 17:1 18:0 19:0 20:1 21:0 22:0 23:1 24:0 25:0 26:1 27:1 28:1 29:1 30:0 31:1 32:0 33:0 34:1 35:0 36:1 37:2009 38:0.12956409 39:1 40:0 41:0 42:0 43:0 44:0 45:1 46:0 47:0 48:0 49:0 50:0 51:0 52:0 53:0 54:0 55:1 56:1 57:0.40743834 58:0 59:1 60:0 61:0 62:0 63:0 64:0 65:0 66:0 67:0 68:2009 69:0.50548732 70:0.86251765 71:0 72:0 73:0 74:0 75:0.10979273 76:0 77:0 78:0 79:1 80:0 81:2009 82:0 83:1 84:0 85:0 86:0 87:0 88:0 89:1 90:0 91:0 92:0 93:0 94:0 95:0 96:0 97:0 98:0 99:0 100:0 101:0 102:0 103:0 104:1 105:0 106:1 107:0 108:0 109:1 110:0 111:0 112:0 113:0 114:0 115:0 116:0 117:0 118:0 119:1 120:0 121:0 122:1 123:1 124:0 125:1 126:0 127:0 128:0.68042749 129:0 130:0 131:0 132:0 # 
-0.0060000000000000001249000902703301 1:1 2:0 3:0 4:0 5:1 6:0 7:0 8:0 9:1 10:0 11:0.40408283 12:0 13:0 14:1 15:1 16:1 17:0 18:1 19:0 20:0 21:0 22:0 23:1 24:1 25:0 26:1 27:0 28:0 29:0 30:1 31:1 32:0 33:0 34:1 35:0 36:0 37:2009 38:0.45521146 39:0 40:1 41:0 42:0 43:0 44:0 45:1 46:1 47:0 48:0 49:0 50:1 51:0 52:0 53:0 54:0 55:0 56:1 57:0.32281217 58:0 59:0 60:0.14481471 61:0 62:0 63:1 64:0 65:1 66:0 67:1 68:2009 69:0.51944858 70:0.86753285 71:1 72:1 73:1 74:1 75:0.4703404 76:0 77:0 78:1 79:0 80:0 81:2009 82:0 83:1 84:1 85:0 86:0 87:0 88:0 89:0 90:1 91:0 92:1 93:0 94:0 95:0 96:0 97:0 98:0 99:0 100:0 101:0 102:0 103:1 104:0 105:0 106:1 107:0 108:0 109:0 110:1 111:0 112:1 113:0 114:1 115:1 116:0 117:0 118:0 119:1 120:0 121:1 122:0 123:0 124:0 125:0 126:0 127:1 128:0.83643341 129:0 130:0 131:0 132:1 # 
0.0063000000000000000444089209850063 1:0 2:0 3:0 4:0 5:0 6:0 7:0 8:0 9:0 10:0 11:0.20440008 12:0 13:0 14:0 15:0 16:0.5 17:0.5 18:0 19:0 20:0 21:0 22:0 23:0 24:0 25:0 26:0 27:0 28:0 29:0 30:0 31:1 32:0 33:0 34:0 35:1 36:0 37:2010 38:0.21081978 39:0 40:0 41:0 42:0 43:0 44:0 45:0 46:0 47:0 48:0 49:0 50:0 51:0.5 52:0 53:0 54:0 55:0.5 56:0 57:0.32858989 58:0 59:0 60:0.2206592 61:0 62:0 63:0 64:0 65:0 66:0 67:0 68:2010 69:0.54305285 70:0.75565904 71:0 72:0 73:0 74:0 75:0.48547816 76:0 77:1 78:0 79:0 80:0 81:2010 82:0 83:0 84:0 85:0 86:0 87:0 88:0 89:1 90:1 91:0 92:0 93:0 94:0 95:0 96:0 97:0 98:0 99:0 100:0 101:0 102:0 103:0 104:0 105:1 106:0 107:0 108:0 109:0 110:0 111:0 112:0 113:0 114:0 115:0 116:0 117:0 118:0 119:0 120:0 121:0 122:1 123:0 124:0 125:0 126:0 127:0 128:0.82697088 129:0 130:0 131:0 132:0 # 
0.0063000000000000000444089209850063 1:0 2:0 3:1 4:1 5:0 6:0 7:0 8:0 9:0 10:0 11:0.21270008 12:1 13:0 14:0 15:0 16:1 17:0 18:0 19:1 20:0 21:0 22:0 23:0 24:0 25:1 26:0 27:0 28:0 29:0 30:0 31:1 32:0 33:0 34:0 35:0 36:0 37:1953 38:0.21813923 39:0 40:0 41:0 42:1 43:0 44:0 45:0 46:0 47:0 48:0 49:0 50:0 51:0 52:0 53:0 54:0 55:0 56:0 57:0.51659292 58:0 59:0 60:0.0059637623 61:0 62:1 63:0 64:1 65:1 66:0 67:0 68:1953 69:0 70:0.84586489 71:0 72:0 73:1 74:0 75:0.20936778 76:0 77:0 78:0 79:0 80:1 81:1953 82:0 83:0 84:0 85:0 86:0 87:0 88:0 89:0 90:0 91:0 92:0 93:1 94:1 95:0 96:0 97:1 98:0 99:0 100:0 101:0 102:0 103:0 104:1 105:0 106:0 107:0 108:0 109:1 110:0 111:0 112:0 113:0 114:0 115:0 116:1 117:0 118:0 119:0 120:0 121:0 122:0 123:0 124:0 125:1 126:0 127:0 128:0.66401899 129:0 130:1 131:0 132:0 # 
-0.0060000000000000001249000902703301 1:0 2:1 3:0 4:0 5:1 6:0 7:0 8:0 9:1 10:1 11:0.18454032 12:0 13:0 14:0 15:0 16:0 17:1 18:0 19:0 20:0 21:0 22:0 23:0 24:0 25:0 26:0 27:0 28:1 29:0 30:0 31:1 32:1 33:0 34:0 35:0 36:0 37:1958 38:0.19569291 39:0 40:1 41:0 42:0 43:0 44:0 45:0 46:0 47:0 48:0 49:0 50:0 51:0 52:0 53:0 54:0 55:1 56:1 57:0.26987553 58:0 59:0 60:0.0032777931 61:0 62:1 63:0 64:1 65:0 66:0 67:0 68:1958 69:0 70:0.71099663 71:1 72:1 73:1 74:1 75:0.19645302 76:0 77:0 78:0 79:0 80:0 81:1958 82:0 83:1 84:0 85:0 86:0 87:1 88:0 89:0 90:1 91:1 92:0 93:1 94:1 95:1 96:0 97:0 98:0 99:1 100:0 101:0 102:0 103:0 104:0 105:0 106:1 107:0 108:0 109:1 110:0 111:0 112:0 113:0 114:1 115:0 116:0 117:0 118:0 119:1 120:0 121:0 122:0 123:0 124:0 125:1 126:0 127:1 128:0.68037492 129:1 130:0 131:0 132:0 # 
0.0063000000000000000444089209850063 1:0 2:0 3:0 4:0 5:0 6:0 7:0 8:0 9:0 10:0 11:0.36377007 12:0 13:0 14:1 15:0 16:1 17:0 18:0 19:0 20:0 21:0 22:0 23:0 24:0 25:0 26:0 27:1 28:1 29:0 30:0 31:1 32:0 33:0 34:0 35:1 36:0 37:2010 38:0.36753416 39:0 40:1 41:0 42:0 43:0 44:0 45:0 46:0 47:0 48:0 49:0 50:1 51:0 52:0 53:0 54:0 55:0 56:0 57:0.44303918 58:0 59:1 60:0 61:0 62:0 63:0 64:0 65:0 66:0 67:0 68:2010 69:0 70:0.92167377 71:0 72:0 73:0 74:0 75:0.54888064 76:0 77:0 78:0 79:0 80:0 81:2010 82:0 83:0 84:0 85:1 86:0 87:1 88:0 89:0 90:0 91:0 92:0 93:0 94:0 95:1 96:0 97:0 98:0 99:1 100:0 101:0 102:0 103:0 104:0 105:0 106:1 107:0 108:0 109:0 110:0 111:0 112:0 113:0 114:0 115:0 116:0 117:0 118:0 119:0 120:0 121:0 122:1 123:0 124:0 125:0 126:0 127:0 128:0.90031064 129:0 130:0 131:0 132:0 # 
-0.0060000000000000001249000902703301 1:0 2:0 3:0 4:0 5:0 6:0 7:0 8:1 9:0 10:1 11:0.18053037 12:1 13:0 14:0 15:0 16:1 17:0 18:0 19:0 20:0 21:0 22:0 23:0 24:0 25:0 26:0 27:0 28:1 29:0 30:0 31:1 32:1 33:0 34:0 35:0 36:0 37:2004 38:0.18370853 39:0 40:0 41:1 42:1 43:0 44:0 45:0 46:0 47:0 48:0 49:0 50:1 51:0 52:0 53:0 54:0 55:0 56:0 57:0.15951343 58:0 59:0 60:0.012792498 61:1 62:1 63:0 64:1 65:1 66:1 67:0 68:2004 69:0 70:0.85697967 71:1 72:0 73:1 74:0 75:0.19437826 76:0 77:0 78:0 79:0 80:0 81:2004 82:0 83:0 84:0 85:0 86:0 87:1 88:0 89:1 90:0 91:0 92:0 93:0 94:1 95:1 96:0 97:0 98:0 99:0 100:0 101:0 102:0 103:0 104:0 105:0 106:0 107:1 108:0 109:0 110:0 111:0 112:0 113:1 114:0 115:0 116:0 117:0 118:0 119:1 120:1 121:0 122:0 123:0 124:0 125:1 126:0 127:0 128:0.68767744 129:0 130:0 131:0 132:0 # 
-0.0060000000000000001249000902703301 1:0 2:0 3:1 4:0 5:0 6:0 7:0 8:0 9:0 10:1 11:0.21747747 12:0 13:0 14:0 15:0 16:0 17:1 18:0 19:0 20:0 21:0 22:0 23:0 24:0 25:1 26:0 27:0 28:0 29:0 30:0 31:1 32:1 33:0 34:0 35:0 36:0 37:1950 38:0.22360443 39:0 40:0 41:0 42:0 43:0 44:0 45:0 46:0 47:0 48:0 49:0 50:0 51:0 52:0 53:0 54:0 55:1 56:0 57:0.22678804 58:0 59:0 60:0 61:0 62:1 63:0 64:1 65:0 66:0 67:0 68:1950 69:0 70:0.681041 71:0 72:0 73:0 74:0 75:0.1882129 76:0 77:0 78:0 79:0 80:0 81:1950 82:1 83:0 84:0 85:0 86:0 87:0 88:0 89:0 90:0 91:0 92:0 93:0 94:1 95:0 96:0 97:0 98:0 99:0 100:0 101:0 102:0 103:1 104:0 105:0 106:0 107:0 108:0 109:1 110:0 111:0 112:0 113:0 114:0 115:0 116:1 117:0 118:0 119:0 120:0 121:0 122:0 123:0 124:0 125:1 126:0 127:0 128:0.66613793 129:0 130:0 131:0 132:0 # 
-0.0060000000000000001249000902703301 1:0 2:0 3:0 4:0 5:0 6:0 7:0 8:0 9:0 10:0 11:0.23278737 12:0 13:0 14:0 15:0 16:0 17:1 18:0 19:0 20:0 21:0 22:0 23:0 24:0 25:0 26:0 27:0 28:0 29:0 30:0 31:0 32:0 33:0 34:0 35:0 36:0 37:1953 38:0.237892 39:1 40:0 41:0 42:0 43:0 44:0 45:0 46:0 47:0 48:0 49:0 50:0 51:0 52:0 53:0 54:0 55:1 56:0 57:0.24266431 58:0 59:0 60:0.015706092 61:1 62:1 63:0 64:1 65:1 66:0 67:0 68:1953 69:0 70:0.74509615 71:0 72:0 73:0 74:0 75:0.19761798 76:0 77:0 78:0 79:0 80:0 81:1953 82:0 83:0 84:0 85:0 86:0 87:0 88:0 89:0 90:0 91:0 92:0 93:0 94:1 95:0 96:0 97:0 98:1 99:0 100:0 101:0 102:0 103:0 104:0 105:0 106:0 107:0 108:0 109:1 110:0 111:0 112:0 113:0 114:0 115:0 116:0 117:0 118:1 119:1 120:0 121:0 122:0 123:0 124:0 125:0 126:0 127:0 128:0.67426842 129:1 130:0 131:0 132:0 # 
-0.0060000000000000001249000902703301 1:0 2:0 3:0 4:0 5:0 6:0 7:0 8:0 9:0 10:0 11:0.2422896 12:0 13:0 14:0 15:0 16:0 17:1 18:0 19:0 20:0 21:0 22:0 23:0 24:0 25:0 26:0 27:0 28:1 29:0 30:0 31:1 32:0 33:0 34:0 35:0 36:0 37:1954 38:0.24921276 39:0 40:0 41:0 42:0 43:0 44:0 45:0 46:0 47:0 48:0 49:0 50:0 51:0 52:0 53:1 54:0 55:1 56:0 57:0.24942118 58:0 59:0 60:0.010152053 61:1 62:1 63:0 64:1 65:1 66:0 67:0 68:1954 69:0.42744657 70:0.81987876 71:0 72:0 73:0 74:0 75:0.19783778 76:0 77:0 78:0 79:0 80:0 81:1954 82:0 83:0 84:0 85:0 86:0 87:1 88:0 89:0 90:0 91:0 92:0 93:0 94:1 95:0 96:0 97:0 98:0 99:0 100:0 101:0 102:0 103:0 104:0 105:0 106:0 107:0 108:0 109:1 110:0 111:0 112:0 113:0 114:0 115:0 116:1 117:0 118:0 119:0 120:0 121:0 122:0 123:0 124:0 125:0 126:0 127:0 128:0.65656996 129:0 130:0 131:0 132:0 # 
0.0063000000000000000444089209850063 1:0 2:1 3:0 4:0 5:1 6:1 7:0 8:1 9:1 10:0 11:0.2091527 12:0 13:0 14:0 15:1 16:0 17:1 18:0 19:0 20:0 21:0 22:0 23:0 24:0 25:1 26:1 27:0 28:0 29:0 30:0 31:1 32:0 33:0 34:1 35:0 36:0 37:1974 38:0.21942747 39:0 40:1 41:0 42:0 43:0 44:0 45:0 46:0 47:0 48:1 49:0 50:1 51:0 52:0 53:0 54:0 55:0 56:1 57:0.51914972 58:0 59:0 60:0 61:0 62:1 63:0 64:0 65:1 66:0 67:1 68:1974 69:0 70:0.80719554 71:1 72:0 73:0 74:1 75:0.20533454 76:0 77:0 78:1 79:0 80:0 81:1974 82:0 83:0 84:0 85:0 86:1 87:0 88:0 89:0 90:0 91:0 92:1 93:1 94:1 95:0 96:0 97:0 98:0 99:0 100:0 101:0 102:0 103:0 104:0 105:0 106:1 107:0 108:1 109:0 110:1 111:0 112:0 113:0 114:0 115:0 116:0 117:0 118:1 119:1 120:1 121:0 122:0 123:0 124:0 125:1 126:0 127:1 128:0.74969369 129:0 130:0 131:1 132:1 # 
0.0063000000000000000444089209850063 1:1 2:0 3:0 4:0 5:0 6:0 7:1 8:0 9:0 10:0 11:0.33459505 12:0 13:0 14:1 15:0 16:1 17:0 18:0 19:0 20:1 21:1 22:0 23:0 24:1 25:0 26:0 27:0 28:0 29:1 30:0 31:1 32:0 33:0 34:1 35:1 36:1 37:2002 38:0.36251789 39:0 40:0 41:0 42:0 43:0 44:0 45:0 46:0 47:0 48:1 49:0 50:0 51:0 52:0 53:0 54:0 55:1 56:1 57:0.43783107 58:0 59:0 60:0.14074023 61:0 62:0 63:0 64:0 65:0 66:0 67:0 68:2002 69:0.57146835 70:0.87463933 71:0 72:1 73:1 74:0 75:0.23570351 76:0 77:0 78:1 79:0 80:0 81:2002 82:0 83:1 84:1 85:0 86:0 87:0 88:1 89:0 90:1 91:1 92:0 93:0 94:0 95:0 96:0 97:1 98:0 99:0 100:0 101:0 102:0 103:0 104:0 105:0.5 106:1 107:0.5 108:0 109:1 110:0 111:0 112:0 113:0 114:0 115:0 116:0 117:0 118:0 119:0 120:0 121:0 122:1 123:0 124:0 125:0 126:0 127:0 128:0.74167579 129:1 130:0 131:0 132:0 # 
-0.0060000000000000001249000902703301 1:0 2:0 3:0 4:0 5:1 6:0 7:0 8:0 9:0 10:0 11:0.21274363 12:0 13:0 14:0 15:0 16:0 17:1 18:0 19:0 20:0 21:0 22:0 23:0 24:0 25:0 26:0 27:0 28:0 29:0 30:0 31:0 32:0 33:0 34:1 35:0 36:0 37:1989 38:0.21384516 39:0 40:0 41:0 42:0 43:0 44:0 45:0 46:0 47:0 48:0 49:0 50:1 51:0 52:0 53:0 54:0 55:0 56:0 57:0.48794317 58:0 59:0 60:0.012792498 61:0 62:0 63:0 64:0 65:0 66:0 67:0 68:1997.5 69:0.65705651 70:0.86501557 71:0 72:0 73:0 74:0 75:0.1126247 76:0 77:0 78:0 79:0 80:0 81:2006 82:1 83:0 84:0 85:0 86:0 87:0 88:1 89:0 90:0 91:0 92:0 93:0 94:0 95:0 96:0 97:0 98:0 99:0 100:0 101:0.5 102:0 103:0 104:0 105:0 106:0 107:0.5 108:0 109:0 110:0 111:0 112:0 113:0 114:0 115:0 116:0 117:0 118:0 119:0 120:0 121:0 122:0 123:0 124:0 125:0 126:0 127:0 128:0.67910367 129:0 130:0 131:0 132:0 # 
0.0063000000000000000444089209850063 1:1 2:0 3:0 4:0 5:0 6:0 7:1 8:0 9:0 10:0 11:0.24758214 12:0 13:0 14:1 15:1 16:1 17:0 18:0 19:0 20:1 21:0 22:0 23:1 24:0 25:0 26:1 27:0 28:0 29:1 30:1 31:1 32:0 33:0 34:1 35:0 36:0 37:1967 38:0.2522186 39:0 40:1 41:0 42:1 43:0 44:0 45:1 46:1 47:0 48:0 49:0 50:1 51:0 52:0 53:0 54:1 55:0 56:1 57:0.5748899 58:0 59:1 60:0.0096512791 61:0 62:1 63:0 64:0 65:1 66:0 67:1 68:1967 69:0.2396291 70:0.73314875 71:0 72:0 73:0 74:1 75:0.1126247 76:0 77:0 78:0 79:0 80:0 81:1967 82:0 83:1 84:0 85:0 86:0 87:0 88:0 89:0 90:0 91:0 92:0 93:0 94:0 95:0 96:0 97:0 98:0 99:0 100:0 101:0 102:0 103:0 104:0 105:0 106:1 107:0 108:0 109:1 110:0 111:0 112:0 113:0 114:0 115:1 116:1 117:0 118:0 119:1 120:0 121:1 122:0 123:1 124:0 125:1 126:0 127:1 128:0.67910367 129:0 130:0 131:0 132:0 # 
0.0063000000000000000444089209850063 1:0 2:0 3:0 4:0 5:0 6:0 7:0 8:0 9:0 10:1 11:0.47822487 12:0 13:0 14:0 15:1 16:0.40000001 17:0.60000002 18:0 19:0 20:0 21:0 22:0 23:0 24:0 25:0 26:0 27:0 28:0 29:0 30:0 31:0 32:0 33:0 34:0 35:0 36:0 37:1987 38:0.48407549 39:1 40:0 41:0 42:1 43:0 44:0 45:0 46:0 47:0 48:0 49:0.2 50:0.40000001 51:0.40000001 52:0 53:0 54:0 55:0 56:0 57:0.74091762 58:0 59:0 60:0.078029685 61:0 62:0 63:1 64:0 65:1 66:0 67:0 68:1999 69:0 70:0.77791762 71:0 72:0 73:0 74:1 75:0.16938801 76:0 77:0 78:0 79:0 80:0 81:2004 82:0 83:0 84:0 85:0 86:0 87:0 88:0 89:0 90:0 91:0 92:0 93:0 94:0 95:1 96:0 97:0 98:0.60000002 99:0 100:0 101:0 102:0.2 103:0 104:0 105:0.2 106:1 107:0 108:0 109:0 110:0 111:0 112:0 113:0 114:0 115:0 116:0 117:0 118:0 119:0 120:0 121:0 122:0 123:0 124:0 125:1 126:0 127:0 128:0.62030554 129:0 130:0 131:0 132:0 # 
0.0063000000000000000444089209850063 1:0 2:1 3:0 4:0 5:1 6:1 7:0 8:1 9:1 10:0 11:0.16455214 12:0 13:0 14:0 15:0 16:0 17:1 18:0 19:0 20:0 21:0 22:1 23:0 24:0 25:1 26:0 27:1 28:0 29:0 30:0 31:1 32:0 33:0 34:1 35:1 36:0 37:1963 38:0.17592713 39:0 40:1 41:0 42:0 43:1 44:0 45:0 46:0 47:0 48:0 49:0 50:1 51:0 52:0 53:0 54:0 55:0 56:1 57:0.3038891 58:0 59:0 60:0.010273453 61:0 62:1 63:0 64:0 65:1 66:0 67:0 68:1963 69:0.33067504 70:0.84410924 71:1 72:1 73:0 74:1 75:0.24705343 76:0 77:1 78:0 79:0 80:0 81:1963 82:0 83:0 84:0 85:0 86:1 87:0 88:0 89:0 90:1 91:0 92:0 93:1 94:1 95:0 96:0 97:0 98:0 99:0.33333334 100:0 101:0.33333334 102:0 103:0 104:0 105:0 106:1 107:0.33333334 108:0 109:0 110:1 111:0 112:0 113:0 114:1 115:0 116:0 117:0 118:1 119:1 120:0 121:0 122:0 123:0 124:0 125:1 126:0 127:0 128:0.74043572 129:0 130:0 131:1 132:0 # 
-0.0060000000000000001249000902703301 1:0 2:0 3:0 4:1 5:0 6:1 7:0 8:0 9:0 10:0 11:0.24535939 12:0 13:0 14:0 15:0 16:0 17:1 18:1 19:1 20:0 21:0 22:0 23:0 24:1 25:1 26:0 27:0 28:1 29:1 30:0 31:1 32:0 33:0 34:0 35:0 36:0 37:1970 38:0.25292128 39:0 40:0 41:0 42:0 43:0 44:0 45:1 46:0 47:1 48:0 49:0 50:1 51:0 52:0 53:0 54:0 55:0 56:0 57:0.83710027 58:0 59:1 60:0.11813712 61:1 62:1 63:0 64:1 65:1 66:0 67:1 68:1970 69:0 70:0.76573783 71:1 72:0 73:1 74:0 75:0.46426064 76:0 77:0 78:1 79:0 80:0 81:1970 82:0 83:0 84:0 85:0 86:0 87:1 88:0 89:1 90:0 91:0 92:0 93:1 94:1 95:1 96:1 97:1 98:0 99:1 100:0 101:0 102:0 103:0 104:0 105:0 106:0 107:0 108:0 109:0 110:0 111:0 112:0 113:0 114:0 115:0 116:1 117:0 118:0 119:1 120:0 121:1 122:0 123:0 124:0 125:1 126:0 127:0 128:0.85226595 129:1 130:0 131:1 132:0 # 
-0.0060000000000000001249000902703301 1:0 2:0 3:0 4:1 5:0 6:0 7:0 8:0 9:0 10:0 11:0.15753998 12:0 13:0 14:0 15:0 16:1 17:0 18:0 19:0 20:0 21:0 22:1 23:0 24:0 25:0 26:0 27:1 28:0 29:1 30:0 31:1 32:0 33:0 34:0 35:0 36:0 37:2002 38:0.17121667 39:0 40:1 41:0 42:0 43:1 44:0 45:0 46:0 47:0 48:0 49:0 50:0 51:0 52:0 53:0 54:0 55:0 56:0 57:0.59704 58:0 59:0 60:0 61:0 62:0 63:0 64:0 65:1 66:0 67:0 68:2002 69:0 70:0.85750246 71:1 72:1 73:1 74:0 75:0.22332864 76:0 77:0 78:0 79:0 80:1 81:2002 82:0 83:0 84:0 85:0 86:1 87:0 88:1 89:0 90:1 91:1 92:0 93:1 94:1 95:0 96:1 97:0 98:0 99:0 100:0 101:0 102:0 103:0 104:0 105:0 106:1 107:1 108:0 109:0 110:0 111:0 112:0 113:0 114:0 115:0 116:0 117:0 118:0 119:1 120:0 121:0 122:0 123:0 124:0 125:0 126:0 127:0 128:0.74627322 129:0 130:0 131:1 132:0 # 
-0.0060000000000000001249000902703301 1:0 2:0 3:0 4:0 5:1 6:1 7:0 8:1 9:1 10:0 11:0.37590656 12:0 13:0 14:0 15:1 16:0 17:1 18:1 19:0 20:0 21:0 22:1 23:1 24:0 25:1 26:0 27:0 28:1 29:0 30:1 31:1 32:0 33:0 34:0 35:0 36:1 37:1973 38:0.41519845 39:0 40:1 41:0 42:0 43:0 44:0 45:0 46:1 47:0 48:0 49:0 50:0 51:0 52:0 53:0 54:0 55:0 56:1 57:0.37938711 58:1 59:0 60:0.015205317 61:0 62:0 63:0 64:1 65:0 66:0 67:1 68:1973 69:0.26586103 70:0.85575974 71:0 72:1 73:0 74:1 75:0.2374538 76:0 77:0 78:0 79:0 80:1 81:1973 82:0 83:1 84:1 85:0 86:1 87:0 88:1 89:0 90:0 91:0 92:0 93:1 94:0 95:1 96:1 97:0 98:0 99:0 100:0 101:0 102:0 103:1 104:0 105:0 106:1 107:0 108:0 109:0 110:1 111:1 112:1 113:0 114:1 115:0 116:0 117:0 118:1 119:1 120:0 121:0 122:0 123:0 124:0 125:1 126:0 127:1 128:0.53479874 129:0 130:0 131:1 132:0 # 
-0.0060000000000000001249000902703301 1:1 2:0 3:0 4:1 5:0 6:1 7:0 8:0 9:0 10:0 11:0.21278794 12:0 13:0 14:1 15:1 16:0 17:1 18:0 19:0 20:0 21:1 22:0 23:0 24:1 25:0 26:0 27:0 28:1 29:1 30:1 31:1 32:0 33:0 34:0 35:0 36:0 37:2008 38:0.22563435 39:0 40:0 41:0 42:0 43:0 44:0 45:1 46:0 47:0 48:0 49:0 50:1 51:0 52:0 53:0 54:0 55:0 56:0 57:0.39290869 58:0 59:1 60:0.0064190114 61:0 62:0 63:0 64:0 65:1 66:0 67:0 68:2008.5 69:0 70:0.81756485 71:0 72:0 73:1 74:0 75:0.18017553 76:0 77:0 78:0 79:0 80:1 81:2009 82:0 83:1 84:0 85:1 86:0 87:1 88:0 89:0 90:0 91:1 92:0 93:0 94:0 95:1 96:0 97:1 98:0 99:0 100:0.5 101:0.5 102:0 103:0 104:0 105:0 106:1 107:0 108:0 109:1 110:0 111:1 112:0 113:1 114:0 115:0 116:0 117:0 118:0 119:1 120:0 121:0 122:0 123:0 124:0 125:0 126:0 127:0 128:0.74407345 129:0 130:1 131:0 132:0 # 
-0.0060000000000000001249000902703301 1:0 2:1 3:0 4:0 5:0 6:0 7:0 8:0 9:0 10:0 11:0.27793911 12:0 13:0 14:0 15:0 16:1 17:0 18:0 19:0 20:0 21:0 22:0 23:0 24:0 25:1 26:0 27:0 28:0 29:0 30:0 31:1 32:0 33:0 34:0 35:0 36:0 37:2004 38:0.28992844 39:0 40:0 41:0 42:0 43:0 44:0 45:0 46:0 47:0 48:0 49:0 50:1 51:0 52:0 53:0 54:0 55:0 56:0 57:0.29701322 58:0 59:0 60:0 61:1 62:0 63:0 64:0 65:0 66:0 67:0 68:2004 69:0 70:0.87175417 71:1 72:0 73:0 74:0 75:0.24579105 76:0 77:0 78:0 79:1 80:0 81:2004 82:0 83:0 84:0 85:1 86:0 87:0 88:0 89:0 90:0 91:0 92:0 93:1 94:1 95:0 96:0 97:0 98:0 99:0 100:0 101:0 102:0 103:0 104:0 105:0 106:0 107:1 108:0 109:0 110:0 111:0 112:0 113:0 114:0 115:0 116:0 117:0 118:0 119:0 120:0 121:0 122:0 123:0 124:0 125:1 126:0 127:0 128:0.74498212 129:1 130:0 131:0 132:0 # 
0.0063000000000000000444089209850063 1:0 2:0 3:0 4:0 5:0 6:0 7:1 8:0 9:0 10:0 11:0.29492208 12:0 13:0 14:1 15:0 16:0 17:1 18:0 19:0 20:0 21:0 22:0 23:0 24:0 25:0 26:0 27:1 28:0 29:0 30:0 31:1 32:0 33:0 34:0 35:0 36:0 37:2009 38:0.31350684 39:0 40:0 41:0 42:0 43:0 44:0 45:0 46:1 47:0 48:0 49:0 50:0 51:0 52:0 53:1 54:0 55:1 56:0 57:0.45907295 58:0 59:0 60:0.0067376853 61:0 62:0 63:0 64:0 65:0 66:0 67:0 68:2009 69:0.66249317 70:0.87518156 71:0 72:1 73:0 74:0 75:0.13174824 76:0 77:0 78:1 79:0 80:0 81:2009 82:0 83:0 84:0 85:0 86:0 87:0 88:1 89:0 90:1 91:1 92:0 93:0 94:0 95:0 96:0 97:0 98:0 99:0 100:0 101:0 102:0 103:0 104:0 105:0 106:0 107:0 108:0 109:1 110:0 111:0 112:0 113:0 114:0 115:0 116:0 117:0 118:0 119:0 120:0 121:0 122:1 123:0 124:0 125:0 126:0 127:0 128:0.68013483 129:0 130:0 131:0 132:0 # 
0.0063000000000000000444089209850063 1:0 2:0 3:0 4:0 5:0 6:0 7:0 8:0 9:0 10:0 11:0.34255037 12:0 13:0 14:1 15:0 16:0 17:1 18:0 19:0 20:0 21:1 22:0 23:0 24:0 25:0 26:0 27:1 28:0 29:0 30:0 31:1 32:0 33:0 34:0 35:0 36:1 37:2009 38:0.3467274 39:0 40:0 41:0 42:0 43:1 44:0 45:0 46:0 47:1 48:0 49:0 50:1 51:0 52:0 53:0 54:0 55:0 56:0 57:0.59103912 58:0 59:1 60:0 61:0 62:0 63:0 64:0 65:0 66:0 67:0 68:2009 69:0.72119963 70:0.86774588 71:1 72:1 73:0 74:0 75:0.18720078 76:0 77:0 78:1 79:0 80:0 81:2009 82:0 83:0 84:0 85:0 86:1 87:0 88:0 89:0 90:1 91:1 92:0 93:1 94:1 95:0 96:0 97:0 98:0 99:0 100:0 101:0 102:0 103:1 104:0 105:0 106:0 107:0 108:0 109:1 110:0 111:0 112:0 113:0 114:0 115:0 116:0 117:0 118:0 119:0 120:0 121:0 122:0 123:0 124:0 125:0 126:0 127:0 128:0.75096643 129:0 130:0 131:0 132:0 # 
0.0063000000000000000444089209850063 1:0 2:0 3:0 4:0 5:0 6:0 7:0 8:0 9:0 10:0 11:0.44116211 12:0 13:0 14:0 15:0 16:0 17:1 18:0 19:0 20:0 21:0 22:0 23:0 24:0 25:0 26:0 27:0 28:1 29:1 30:0 31:0 32:0 33:0 34:1 35:0 36:0 37:2008 38:0.47742355 39:0 40:0 41:0 42:0 43:0 44:0 45:0 46:0 47:0 48:0 49:0 50:0 51:0 52:0 53:0 54:0 55:1 56:1 57:0.23172837 58:0 59:0 60:0.0077847582 61:0 62:0 63:0 64:0 65:0 66:0 67:0 68:2008 69:0 70:0.80980963 71:0 72:0 73:0 74:0 75:0.24659814 76:0 77:0 78:0 79:1 80:0 81:2008 82:0 83:0 84:0 85:0 86:0 87:1 88:0 89:0 90:0 91:0 92:0 93:0 94:0 95:1 96:0 97:0 98:0 99:0 100:1 101:0 102:0 103:0 104:0 105:0 106:1 107:0 108:0 109:0 110:0 111:0 112:0 113:0 114:0 115:0 116:0 117:0 118:0 119:0 120:0 121:0 122:0 123:0 124:0 125:0 126:0 127:1 128:0.73915023 129:0 130:0 131:0 132:0 # 
-0.0060000000000000001249000902703301 1:0 2:0 3:0 4:0 5:0 6:0 7:0 8:0 9:0 10:0 11:0.27183798 12:0 13:0 14:0 15:0 16:0.60000002 17:0.40000001 18:0 19:1 20:0 21:0 22:0 23:0 24:0 25:0 26:0 27:0 28:0 29:0 30:0 31:1 32:0 33:0 34:0 35:0 36:0 37:1986 38:0.29132596 39:0 40:0 41:0 42:0 43:0 44:0 45:0 46:0 47:0 48:0 49:0.2 50:0.40000001 51:0 52:0 53:0.2 54:0 55:0 56:0 57:0.34120426 58:0 59:0 60:0.1290722 61:0 62:0 63:0 64:0 65:0 66:0 67:0 68:1998 69:0.43729219 70:0.41273358 71:0 72:0 73:0 74:0 75:0.1126247 76:0 77:0 78:0 79:0 80:0 81:2003 82:1 83:0 84:0 85:1 86:0 87:0 88:0 89:0 90:0 91:0 92:0 93:0 94:0 95:0 96:0 97:0 98:0 99:0 100:0 101:0 102:0 103:0.2 104:0 105:0.40000001 106:1 107:0.2 108:0 109:0 110:0 111:0 112:0 113:0 114:1 115:0 116:0 117:1 118:0 119:0 120:0 121:0 122:0 123:0 124:0 125:0 126:0 127:0 128:0.67910367 129:0 130:1 131:0 132:0 # 
-0.0030716948513145325705409049987793 1:0 2:0 3:0 4:0 5:0 6:0 7:0 8:0 9:0 10:0 11:0.25887159 12:0 13:0 14:0 15:0 16:1 17:0 18:0 19:0 20:0 21:0 22:0 23:0 24:0 25:0 26:0 27:1 28:0 29:0 30:0 31:1 32:0 33:0 34:0 35:1 36:0 37:2006 38:0.26416397 39:0 40:0 41:0 42:0 43:1 44:0 45:0 46:0 47:1 48:0 49:0 50:1 51:0 52:0 53:0 54:0 55:0 56:0 57:0.21708064 58:0 59:0 60:0.0080579072 61:0 62:0 63:0 64:0 65:0 66:0 67:0 68:2006 69:0 70:0.8714056 71:0 72:0 73:1 74:0 75:0.22441413 76:0 77:0 78:1 79:0 80:0 81:2006 82:0 83:0 84:1 85:0 86:1 87:0 88:0 89:0 90:1 91:0 92:0 93:0 94:0 95:0 96:0 97:0 98:0 99:0 100:0 101:0 102:1 103:0 104:0 105:0 106:0 107:0 108:0 109:1 110:0 111:0 112:0 113:0 114:0 115:0 116:0 117:0 118:0 119:0 120:0 121:0 122:1 123:0 124:0 125:0 126:0 127:0 128:0.6164608 129:0 130:0 131:0 132:0 # 
-0.0060000000000000001249000902703301 1:0 2:1 3:0 4:1 5:0 6:0 7:0 8:1 9:1 10:1 11:0.32375067 12:0 13:0 14:0 15:0 16:0.33333334 17:0.66666669 18:0 19:0 20:0 21:0 22:1 23:0 24:1 25:0 26:0 27:0 28:1 29:0 30:0 31:1 32:0 33:0 34:0 35:0 36:0 37:1971 38:0.33215356 39:0 40:0 41:1 42:0 43:0 44:0 45:0 46:0 47:0 48:0 49:0 50:1 51:0 52:0 53:0 54:0 55:0 56:0 57:0.46804884 58:0 59:0 60:0.11285623 61:0 62:0 63:0 64:1 65:1 66:0 67:1 68:1988.3334 69:0 70:0.78084803 71:1 72:0 73:0 74:0 75:0.4759289 76:0 77:0 78:0 79:0 80:0 81:2000 82:0 83:0 84:0 85:0 86:0 87:1 88:0 89:1 90:0 91:0 92:0 93:0 94:0 95:1 96:1 97:1 98:0 99:0 100:0 101:0.33333334 102:0.33333334 103:0 104:0 105:0 106:1 107:0 108:0.33333334 109:0 110:1 111:1 112:0 113:0 114:0 115:0 116:1 117:0 118:1 119:1 120:0 121:0 122:0 123:0 124:0 125:1 126:0 127:0 128:0.7932027 129:1 130:0 131:0 132:0 # 
-0.0039157418632385088130831718444824 1:0 2:0 3:1 4:0 5:0 6:0 7:0 8:1 9:0 10:0 11:0.42541486 12:0 13:1 14:0 15:0 16:0.40000001 17:0.60000002 18:0 19:0 20:1 21:1 22:1 23:0 24:0 25:0 26:0 27:0 28:0 29:0 30:0 31:1 32:0 33:0 34:0 35:1 36:1 37:2002 38:0.43124267 39:0 40:0 41:1 42:0 43:0 44:0 45:1 46:0 47:0 48:0 49:0 50:0.80000001 51:0 52:0 53:0 54:0.2 55:0.2 56:0 57:0.41656926 58:0 59:0 60:0.021457404 61:1 62:0 63:0 64:0 65:1 66:0 67:0 68:2005.6 69:0.57728899 70:0.88240033 71:0 72:0 73:1 74:0 75:0.22591251 76:0 77:1 78:0 79:0 80:1 81:2007 82:0 83:0 84:0 85:0 86:0 87:0 88:1 89:0 90:0 91:1 92:0 93:0 94:0 95:0 96:0 97:0 98:0 99:0.2 100:0 101:0.2 102:0.40000001 103:0 104:0 105:0 106:0 107:0 108:0 109:0 110:0 111:0 112:0 113:0 114:0 115:0 116:0 117:1 118:0 119:0 120:0 121:0 122:1 123:0 124:0 125:0 126:0 127:0 128:0.68964177 129:0 130:1 131:0 132:0 # 
0.0063000000000000000444089209850063 1:0 2:0 3:0 4:0 5:0 6:0 7:0 8:0 9:1 10:0 11:0.26834077 12:0 13:0 14:1 15:0 16:0 17:1 18:0 19:0 20:0 21:1 22:0 23:0 24:0 25:0 26:0 27:1 28:0 29:1 30:0 31:1 32:1 33:0 34:0 35:0 36:1 37:2008 38:0.29160702 39:0 40:0 41:0 42:1 43:0 44:0 45:0 46:1 47:0 48:0 49:0 50:1 51:0 52:0 53:0 54:0 55:0 56:0 57:0.19683629 58:0 59:1 60:0.10648274 61:0 62:0 63:0 64:1 65:1 66:0 67:0 68:2008 69:0.59592694 70:0.86507368 71:0 72:1 73:0 74:0 75:0.1126247 76:0 77:0 78:1 79:0 80:0 81:2008 82:1 83:0 84:0 85:0 86:0 87:0 88:0 89:0 90:1 91:0 92:0 93:0 94:0 95:0 96:0 97:0 98:0 99:0 100:0 101:0 102:0 103:0 104:0 105:0 106:0 107:1 108:0 109:1 110:0 111:0 112:0 113:1 114:1 115:0 116:0 117:0 118:0 119:1 120:0 121:0 122:1 123:1 124:0 125:0 126:0 127:0 128:0.67910367 129:1 130:0 131:0 132:0 # 
-0.0060000000000000001249000902703301 1:0 2:0 3:0 4:0 5:0 6:0 7:0 8:0 9:0 10:0 11:0.22590889 12:0 13:0 14:0 15:0 16:0 17:1 18:0 19:0 20:0 21:0 22:0 23:0 24:0 25:1 26:0 27:0 28:0 29:0 30:0 31:0 32:0 33:0 34:0 35:0 36:0 37:1989 38:0.23672089 39:0 40:0 41:0 42:0 43:0 44:0 45:0 46:0 47:0 48:0 49:0 50:0 51:0 52:0 53:0 54:0 55:0 56:0 57:0.43723783 58:0 59:0 60:0.0070108348 61:0 62:0 63:0 64:0 65:0 66:1 67:0 68:1989 69:0 70:0.72900492 71:0 72:0 73:0 74:0 75:0.20450345 76:0 77:0 78:0 79:0 80:0 81:1989 82:0 83:0 84:0 85:1 86:0 87:1 88:0 89:0 90:0 91:0 92:0 93:0 94:0 95:0 96:0 97:0 98:0 99:0 100:1 101:0 102:0 103:0 104:0 105:0 106:0 107:0 108:0 109:1 110:0 111:0 112:0 113:0 114:0 115:0 116:0 117:0 118:0 119:0 120:0 121:0 122:0 123:0 124:0 125:0 126:0 127:0 128:0.76012951 129:1 130:0 131:0 132:0 # 
0.0063000000000000000444089209850063 1:0 2:0 3:0 4:1 5:0 6:0 7:0 8:0 9:0 10:0 11:0.45375907 12:0 13:0 14:0 15:0 16:0.40000001 17:0.60000002 18:0 19:0 20:0 21:0 22:0 23:0 24:0 25:0 26:0 27:0 28:1 29:1 30:1 31:1 32:0 33:0 34:0 35:0 36:0 37:1970 38:0.45815486 39:1 40:1 41:0 42:0 43:0 44:0 45:0 46:0 47:1 48:0 49:0 50:0.40000001 51:0 52:0 53:0 54:0 55:0 56:0 57:0.4234868 58:0 59:0 60:0.069061279 61:1 62:0 63:0 64:0 65:1 66:0 67:1 68:1978.2 69:0 70:0.79151094 71:1 72:0 73:1 74:0 75:0.099981718 76:0 77:0 78:1 79:0 80:1 81:2004 82:0 83:0 84:0 85:1 86:1 87:0 88:0 89:1 90:1 91:1 92:0 93:1 94:1 95:0 96:1 97:0 98:0 99:0 100:0 101:0 102:0.2 103:0.2 104:0 105:0.40000001 106:1 107:0.2 108:0 109:1 110:0 111:0 112:0 113:0 114:0 115:1 116:1 117:0 118:0 119:0 120:0 121:0 122:0 123:1 124:0 125:0 126:0 127:0 128:0.71268898 129:1 130:0 131:1 132:0 # 
0.0063000000000000000444089209850063 1:0 2:0 3:0 4:0 5:0 6:0 7:0 8:1 9:1 10:1 11:0.29360896 12:0 13:0 14:1 15:0 16:0 17:1 18:0 19:0 20:0 21:0 22:0 23:0 24:1 25:0 26:0 27:0 28:1 29:0 30:0 31:1 32:0 33:0 34:0 35:0 36:1 37:1986 38:0.30655822 39:0 40:1 41:0 42:0 43:0 44:0 45:0 46:0 47:0 48:0 49:0 50:0.66666669 51:0 52:0 53:0 54:0 55:0 56:0 57:0.477716 58:0 59:0 60:0.0072612218 61:0 62:0 63:0 64:0 65:1 66:0 67:0 68:1995 69:0.34081215 70:0.80398762 71:0 72:1 73:1 74:0 75:0.20350824 76:0 77:0 78:0 79:0 80:1 81:2010 82:0 83:0 84:0 85:0 86:0 87:1 88:0 89:0 90:1 91:0 92:0 93:1 94:0 95:1 96:0 97:1 98:0 99:0 100:0.33333334 101:0 102:0 103:0 104:0 105:0.33333334 106:1 107:0.33333334 108:0 109:1 110:0 111:1 112:0 113:0 114:1 115:0 116:0 117:0 118:0 119:1 120:0 121:0 122:0 123:0 124:0 125:0 126:0 127:0 128:0.75988215 129:1 130:0 131:1 132:0 # 
0.0063000000000000000444089209850063 1:0 2:0 3:0 4:0 5:0 6:0 7:0 8:0 9:1 10:0 11:0.26250756 12:0 13:0 14:1 15:0 16:1 17:0 18:0 19:0 20:0 21:0 22:0 23:0 24:0 25:0 26:0 27:0 28:0 29:0 30:0 31:1 32:0 33:0 34:0 35:0 36:0 37:2005 38:0.28044242 39:0 40:0 41:0 42:0 43:0 44:0 45:0 46:0 47:0 48:0 49:0 50:1 51:0 52:0 53:1 54:0 55:0 56:0 57:0.27050552 58:0 59:0 60:0.002822544 61:1 62:0 63:0 64:1 65:1 66:0 67:0 68:2005 69:0.60103434 70:0.91057837 71:0 72:0 73:0 74:0 75:0.21404481 76:0 77:0 78:0 79:0 80:1 81:2005 82:0 83:0 84:0 85:0 86:0 87:0 88:0 89:0 90:1 91:0 92:0 93:0 94:1 95:0 96:0 97:0 98:0 99:0 100:0 101:0 102:0 103:0 104:0 105:0 106:1 107:0 108:0 109:0 110:0 111:1 112:0 113:0 114:0 115:0 116:0 117:0 118:0 119:1 120:0 121:0 122:0 123:0 124:0 125:1 126:0 127:0 128:0.81730396 129:1 130:0 131:0 132:0 # 
0.0063000000000000000444089209850063 1:0 2:0 3:0 4:0 5:0 6:0 7:0 8:0 9:0 10:0 11:0.36705613 12:0 13:0 14:0 15:0 16:0 17:1 18:0 19:0 20:0 21:0 22:0 23:0 24:0 25:0 26:0 27:0 28:0 29:0 30:0 31:1 32:0 33:0 34:0 35:0 36:0 37:2007 38:0.36523098 39:0 40:0 41:0 42:0 43:0 44:0 45:0 46:0 47:0 48:0 49:0 50:1 51:0 52:0 53:0 54:0 55:0 56:0 57:0.50113142 58:0 59:0 60:0 61:0 62:0 63:0 64:1 65:0 66:0 67:0 68:2007 69:0.69986773 70:0.86048448 71:0 72:0 73:0 74:0 75:0.21404481 76:0 77:0 78:0 79:0 80:0 81:2007 82:0 83:0 84:0 85:0 86:0 87:0 88:0 89:0 90:0 91:0 92:0 93:0 94:0 95:0 96:0 97:0 98:0 99:0 100:0 101:0 102:0 103:1 104:0 105:0 106:0 107:0 108:0 109:0 110:0 111:0 112:0 113:1 114:0 115:0 116:0 117:0 118:0 119:1 120:0 121:0 122:0 123:0 124:0 125:0 126:0 127:0 128:0.81730396 129:0 130:0 131:0 132:0 # 
-0.0060000000000000001249000902703301 1:1 2:0 3:0 4:0 5:0 6:0 7:0 8:0 9:0 10:0 11:0.41731268 12:0 13:1 14:1 15:1 16:0 17:1 18:0 19:0 20:0 21:0 22:0 23:1 24:0 25:1 26:1 27:1 28:0 29:1 30:1 31:1 32:0 33:0 34:0 35:0 36:1 37:2003 38:0.41523749 39:0 40:0 41:0 42:0 43:0 44:0 45:0 46:1 47:0 48:0 49:0 50:1 51:0 52:0 53:0 54:1 55:0 56:1 57:0.47509095 58:0 59:0 60:0 61:1 62:0 63:0 64:0 65:0 66:0 67:1 68:2003 69:0.50338125 70:0.82816643 71:0 72:1 73:1 74:1 75:0.21714193 76:0 77:0 78:0 79:0 80:0 81:2003 82:0 83:1 84:0 85:0 86:0 87:0 88:0 89:0 90:1 91:0 92:1 93:0 94:0 95:0 96:0 97:0 98:0 99:0 100:0 101:0 102:0 103:0 104:0 105:0 106:1 107:0 108:0 109:1 110:0 111:1 112:0 113:0 114:0 115:0 116:0 117:0 118:0 119:0 120:0 121:0 122:0 123:0 124:0 125:0 126:0 127:0 128:0.75369543 129:0 130:0 131:0 132:0 # 
-0.0060000000000000001249000902703301 1:0 2:1 3:0 4:0 5:0 6:0 7:0 8:0 9:1 10:0 11:0.18451679 12:0 13:0 14:1 15:0 16:0 17:1 18:0 19:1 20:0 21:0 22:0 23:0 24:0 25:1 26:0 27:1 28:1 29:0 30:0 31:1 32:0 33:0 34:0 35:0 36:0 37:1995 38:0.19699416 39:0 40:1 41:1 42:1 43:0 44:0 45:0 46:1 47:1 48:0 49:0 50:0.66666669 51:0 52:0 53:0 54:0 55:0.33333334 56:0 57:0.3998467 58:0 59:0 60:0.049531095 61:0 62:0 63:0 64:1 65:1 66:1 67:0 68:2002 69:0.38293508 70:0.75416481 71:0 72:0 73:1 74:0 75:0.24705343 76:0 77:0 78:0 79:0 80:0 81:2008 82:0 83:0 84:0 85:0 86:0 87:1 88:0 89:0 90:0 91:0 92:0 93:1 94:1 95:0 96:0 97:0 98:0.33333334 99:0 100:0 101:0 102:0 103:0.66666669 104:0 105:0 106:0 107:0 108:0 109:1 110:0 111:0 112:0 113:0 114:1 115:0 116:1 117:1 118:0 119:1 120:1 121:0 122:0 123:0 124:1 125:1 126:0 127:0 128:0.74043572 129:1 130:0 131:0 132:0 # 
0.0063000000000000000444089209850063 1:0 2:0 3:0 4:0 5:0 6:0 7:0 8:0 9:1 10:0 11:0.23841032 12:0 13:0 14:1 15:0 16:0 17:1 18:0 19:0 20:0 21:0 22:0 23:0 24:0 25:0 26:0 27:1 28:0 29:0 30:0 31:1 32:0 33:0 34:1 35:0 36:1 37:2009 38:0.25151595 39:1 40:1 41:0 42:0 43:0 44:0 45:0 46:0 47:0 48:0 49:0 50:1 51:0 52:0 53:0 54:0 55:0 56:1 57:0.50469095 58:0 59:0 60:0.0061913868 61:0 62:0 63:0 64:0 65:0 66:0 67:1 68:2009 69:0.4809342 70:0.92539161 71:0 72:0 73:0 74:0 75:0.45214626 76:0 77:0 78:0 79:0 80:1 81:2009 82:0 83:0 84:0 85:0 86:0 87:0 88:1 89:0 90:0 91:0 92:0 93:0 94:1 95:0 96:0 97:0 98:0 99:0 100:0 101:0 102:0 103:0 104:0 105:0 106:0 107:1 108:0 109:0 110:0 111:0 112:0 113:0 114:0 115:0 116:0 117:0 118:0 119:1 120:0 121:0 122:0 123:0 124:0 125:0 126:0 127:0 128:0.70287913 129:0 130:0 131:0 132:0 # 
0.0063000000000000000444089209850063 1:1 2:0 3:0 4:1 5:1 6:0 7:0 8:0 9:0 10:0 11:0.22156402 12:1 13:0 14:0 15:0 16:0.33333334 17:0.66666669 18:0 19:1 20:0 21:0 22:0 23:1 24:0 25:1 26:0 27:0 28:0 29:0 30:0 31:1 32:1 33:0 34:0 35:0 36:0 37:1965 38:0.23603123 39:0 40:0 41:0 42:1 43:0 44:0 45:0 46:0 47:0 48:0 49:0 50:0.66666669 51:0 52:0 53:0.33333334 54:0 55:0 56:0 57:0.34849033 58:0 59:0 60:0.060229447 61:0 62:1 63:0 64:0 65:1 66:0 67:0 68:1987.6666 69:0.48769975 70:0.83103228 71:0 72:0 73:1 74:1 75:0.19756019 76:0 77:0 78:0 79:0 80:1 81:2006 82:0 83:1 84:0 85:0 86:0 87:0 88:0 89:0 90:0 91:0 92:0 93:0 94:1 95:0 96:0 97:0 98:0.33333334 99:0 100:0.33333334 101:0 102:0 103:0 104:0 105:0 106:1 107:0 108:0 109:1 110:0 111:0 112:0 113:0 114:1 115:0 116:1 117:0 118:0 119:1 120:0 121:0 122:0 123:0 124:0 125:1 126:0 127:0 128:0.72033858 129:0 130:1 131:0 132:0 # 
0.0063000000000000000444089209850063 1:1 2:0 3:0 4:0 5:1 6:0 7:0 8:0 9:0 10:0 11:0.7534411 12:0 13:0 14:0 15:1 16:0 17:1 18:1 19:0 20:0 21:0 22:0 23:1 24:0 25:0 26:1 27:0 28:0 29:1 30:1 31:1 32:0 33:0 34:0 35:0 36:0 37:2005 38:0.7648536 39:0 40:0 41:0 42:0 43:0 44:0 45:0 46:0 47:0 48:0 49:0 50:1 51:0 52:0 53:0 54:0 55:0 56:1 57:0.4085041 58:1 59:0 60:0.092233449 61:0 62:0 63:1 64:0 65:1 66:0 67:0 68:2005 69:0.22431429 70:0.86478323 71:0 72:0 73:0 74:1 75:0.466712 76:1 77:0 78:1 79:0 80:0 81:2005 82:0 83:1 84:0 85:0 86:0 87:0 88:1 89:0 90:0 91:0 92:1 93:0 94:0 95:0 96:1 97:0 98:0 99:0 100:0 101:0 102:1 103:0 104:0 105:0 106:1 107:0 108:0 109:0 110:1 111:1 112:1 113:0 114:0 115:1 116:0 117:0 118:0 119:1 120:0 121:1 122:0 123:0 124:0 125:1 126:0 127:1 128:0.82890415 129:0 130:0 131:0 132:1 # 
-0.0060000000000000001249000902703301 1:0 2:0 3:0 4:0 5:0 6:0 7:0 8:0 9:0 10:0 11:0.3239274 12:0 13:0 14:1 15:0 16:0 17:1 18:0 19:0 20:0 21:0 22:0 23:0 24:0 25:0 26:0 27:1 28:1 29:0 30:0 31:1 32:0 33:0 34:1 35:0 36:1 37:2007 38:0.32853612 39:0 40:1 41:0 42:0 43:0 44:0 45:0 46:1 47:0 48:0 49:0 50:1 51:0 52:0 53:0 54:0 55:0 56:0 57:0.39688039 58:0 59:0 60:0.0075116088 61:0 62:0 63:0 64:1 65:1 66:1 67:0 68:2007 69:0.47212112 70:0.90604728 71:0 72:1 73:0 74:0 75:0.24720065 76:0 77:0 78:1 79:1 80:1 81:2007 82:0 83:0 84:0 85:0 86:0 87:1 88:0 89:0 90:1 91:0 92:0 93:1 94:1 95:0 96:0 97:1 98:0 99:0 100:0 101:0 102:0 103:0 104:0 105:0 106:0 107:1 108:0 109:1 110:0 111:0 112:0 113:0 114:0 115:0 116:0 117:0 118:0 119:1 120:0 121:0 122:1 123:0 124:0 125:0 126:1 127:0 128:0.7398541 129:0 130:0 131:1 132:0 # 
-0.0058599827949024074769113212823868 1:0 2:0 3:0 4:0 5:0 6:0 7:1 8:0 9:0 10:0 11:0.26895103 12:0 13:0 14:0 15:0 16:0.66666669 17:0.33333334 18:0 19:0 20:1 21:1 22:0 23:0 24:0 25:0 26:0 27:1 28:0 29:1 30:0 31:1 32:0 33:0 34:0 35:1 36:0 37:1999 38:0.27964866 39:0 40:0 41:0 42:0 43:0 44:0 45:1 46:0 47:0 48:1 49:0.33333334 50:0.66666669 51:0 52:0 53:0 54:0 55:0 56:0 57:0.36247307 58:0 59:0 60:0.0027542566 61:1 62:0 63:0 64:0 65:1 66:0 67:0 68:2004.3334 69:0.66382051 70:0.89813399 71:0 72:0 73:0 74:0 75:0.2451662 76:0 77:1 78:1 79:0 80:1 81:2010 82:0 83:1 84:0 85:0 86:0 87:0 88:1 89:0 90:0 91:0 92:0 93:0 94:0 95:0 96:0 97:0 98:0 99:0 100:0.33333334 101:0 102:0 103:0 104:0 105:0 106:1 107:0.33333334 108:0.33333334 109:0 110:0 111:0 112:0 113:0 114:0 115:0 116:0 117:1 118:0 119:0 120:0 121:0 122:1 123:0 124:0 125:0 126:0 127:0 128:0.74015707 129:0 130:0 131:0 132:0 # 
-0.0060000000000000001249000902703301 1:1 2:0 3:0 4:0 5:0 6:0 7:0 8:0 9:0 10:0 11:0.32563901 12:1 13:0 14:1 15:0 16:0.33333334 17:0.66666669 18:0 19:0 20:0 21:0 22:1 23:0 24:0 25:0 26:0 27:1 28:1 29:1 30:0 31:1 32:0 33:0 34:0 35:0 36:1 37:2005 38:0.336851 39:0 40:1 41:0 42:1 43:0 44:0 45:0 46:0 47:0 48:0 49:0 50:0.33333334 51:0.33333334 52:0 53:0 54:0.33333334 55:0.33333334 56:0 57:0.35229141 58:0 59:1 60:0.0035054174 61:1 62:0 63:0 64:1 65:0 66:0 67:0 68:2007.3334 69:0.61670196 70:0.76997852 71:0 72:1 73:0 74:0 75:0.24659814 76:0 77:0 78:0 79:0 80:1 81:2009 82:0 83:0 84:0 85:0 86:0 87:1 88:0 89:0 90:1 91:0 92:0 93:1 94:0 95:1 96:1 97:0 98:0 99:0 100:0 101:0 102:0 103:0 104:0 105:0.33333334 106:1 107:0.33333334 108:0 109:1 110:0 111:0 112:0 113:0 114:0 115:0 116:0 117:1 118:0 119:1 120:0 121:0 122:1 123:0 124:0 125:0 126:0 127:0 128:0.73915023 129:0 130:1 131:0 132:0 # 
-0.0030396170036510739009827375411987 1:1 2:0 3:0 4:0 5:0 6:0 7:0 8:0 9:0 10:0 11:0.43451941 12:0 13:0 14:1 15:0 16:0 17:1 18:0 19:0 20:0 21:0 22:0 23:0 24:1 25:0 26:0 27:1 28:0 29:1 30:1 31:1 32:0 33:0 34:0 35:0 36:0 37:1973 38:0.43803513 39:0 40:0 41:0 42:0 43:0 44:0 45:1 46:0 47:0 48:0 49:0 50:1 51:0 52:0 53:0 54:0 55:0 56:0 57:0.37515029 58:0 59:0 60:0.013885095 61:1 62:0 63:0 64:0 65:0 66:0 67:0 68:1973 69:0.30416951 70:0.81323701 71:0 72:0 73:0 74:0 75:0.47470444 76:0 77:0 78:0 79:0 80:1 81:1973 82:0 83:1 84:0 85:1 86:0 87:0 88:0 89:0 90:0 91:0 92:0 93:0 94:0 95:0 96:0 97:0 98:0 99:0 100:0 101:0 102:0 103:0 104:0 105:0 106:1 107:0 108:1 109:0 110:0 111:0 112:0 113:0 114:1 115:0 116:0 117:1 118:0 119:1 120:0 121:0 122:1 123:0 124:0 125:0 126:0 127:0 128:0.84174275 129:0 130:0 131:0 132:0 # 
0.0063000000000000000444089209850063 1:1 2:1 3:0 4:0 5:1 6:0 7:0 8:0 9:0 10:0 11:0.25615171 12:1 13:1 14:0 15:0 16:0.5 17:0.5 18:0 19:0 20:0 21:1 22:0 23:1 24:0 25:0 26:0 27:0 28:1 29:0 30:0 31:0 32:0 33:0 34:0 35:0 36:0 37:1955 38:0.27201042 39:1 40:0 41:0 42:0 43:0 44:0 45:1 46:1 47:0 48:0 49:0.5 50:0 51:0 52:0 53:0 54:0 55:0 56:0 57:0.08043135 58:0 59:0 60:0.012678686 61:1 62:0 63:0 64:0 65:1 66:1 67:0 68:1976.5 69:0.30416951 70:0.65156943 71:0 72:0 73:1 74:0 75:0.48389825 76:0 77:0 78:0 79:0 80:0 81:1998 82:0 83:1 84:0 85:0 86:0 87:0 88:0 89:1 90:0 91:1 92:0 93:0 94:1 95:1 96:0 97:0 98:0.5 99:0 100:0.5 101:0 102:0 103:0 104:0 105:0 106:1 107:0 108:0 109:0 110:0 111:1 112:0 113:0 114:0 115:0 116:0 117:0 118:0 119:0 120:1 121:0 122:0 123:0 124:1 125:1 126:0 127:1 128:0.83050233 129:0 130:1 131:0 132:0 # 
0.0063000000000000000444089209850063 1:0 2:0 3:0 4:1 5:1 6:0 7:0 8:0 9:0 10:0 11:0.22869782 12:0 13:0 14:0 15:0 16:1 17:0 18:0 19:0 20:0 21:0 22:0 23:0 24:0 25:0 26:0 27:0 28:0 29:0 30:0 31:1 32:0 33:0 34:0 35:0 36:0 37:2006 38:0.23554978 39:0 40:0 41:0 42:0 43:0 44:0 45:0 46:0 47:0 48:0 49:0 50:0 51:0 52:0 53:0 54:0 55:1 56:0 57:0.29094413 58:0 59:0 60:0.014385869 61:0 62:1 63:0 64:1 65:1 66:0 67:0 68:2006 69:0 70:0.80115408 71:0 72:0 73:0 74:0 75:0.19883384 76:0 77:0 78:0 79:0 80:0 81:2006 82:0 83:0 84:0 85:0 86:0 87:1 88:0 89:0 90:0 91:0 92:0 93:0 94:1 95:0 96:0 97:0 98:0 99:0 100:0 101:0 102:0 103:0 104:0 105:1 106:0 107:0 108:0 109:1 110:0 111:0 112:0 113:0 114:1 115:0 116:0 117:0 118:0 119:0 120:0 121:0 122:0 123:0 124:0 125:1 126:0 127:0 128:0.69090849 129:1 130:0 131:0 132:0 # 
0.0063000000000000000444089209850063 1:0 2:0 3:0 4:0 5:0 6:0 7:0 8:0 9:0 10:0 11:0 12:0 13:0 14:1 15:0 16:1 17:0 18:0 19:0 20:0 21:0 22:0 23:0 24:0 25:0 26:0 27:1 28:0 29:1 30:0 31:1 32:0 33:0 34:0 35:0 36:0 37:2008 38:0 39:0 40:0 41:0 42:0 43:0 44:0 45:0 46:0 47:0 48:1 49:0 50:0 51:1 52:0 53:0 54:0 55:0 56:0 57:0.25136372 58:0 59:0 60:0 61:1 62:0 63:0 64:0 65:0 66:0 67:0 68:2008 69:0 70:0.67366344 71:0 72:0 73:1 74:0 75:0.18797104 76:0 77:0 78:1 79:0 80:0 81:2008 82:0 83:0 84:0 85:0 86:0 87:0 88:0 89:0 90:1 91:0 92:0 93:0 94:0 95:0 96:0 97:0 98:0 99:0 100:0 101:0 102:0 103:1 104:0 105:0 106:0 107:0 108:0 109:0 110:0 111:0 112:0 113:0 114:0 115:0 116:0 117:0 118:0 119:1 120:0 121:0 122:1 123:0 124:0 125:0 126:1 127:0 128:0.79078352 129:1 130:0 131:0 132:0 # 
-0.0049305462389384047128260135650635 1:0 2:0 3:1 4:0 5:0 6:0 7:0 8:0 9:0 10:1 11:0.20902404 12:0 13:0 14:0 15:0 16:0 17:1 18:0 19:0 20:0 21:0 22:0 23:1 24:0 25:0 26:0 27:0 28:0 29:0 30:0 31:1 32:0 33:0 34:0 35:0 36:0 37:2002 38:0.21979181 39:0 40:1 41:0 42:1 43:0 44:0 45:0 46:0 47:0 48:0 49:0 50:0.33333334 51:0 52:0 53:0 54:0 55:0 56:0 57:0.43670583 58:0 59:0 60:0.017830586 61:0 62:1 63:0 64:0 65:1 66:0 67:1 68:2003 69:0.25369278 70:0.79437679 71:0 72:0 73:0 74:1 75:0.22838975 76:0 77:0 78:0 79:0 80:1 81:2005 82:0 83:0 84:0 85:0 86:0 87:0 88:0 89:0 90:0 91:0 92:0 93:0 94:1 95:0 96:0 97:0 98:0 99:0.33333334 100:0 101:0 102:0 103:0 104:0 105:0 106:1 107:0.66666669 108:0 109:1 110:0 111:0 112:0 113:0 114:0 115:0 116:0 117:0 118:0 119:0 120:0 121:0 122:0 123:0 124:0 125:0 126:0 127:0 128:0.68961585 129:0 130:0 131:0 132:0 # 
0.0063000000000000000444089209850063 1:0 2:0 3:0 4:0 5:0 6:0 7:0 8:0 9:0 10:0 11:0.28893268 12:1 13:0 14:0 15:0 16:0 17:1 18:0 19:0 20:0 21:0 22:0 23:0 24:0 25:0 26:0 27:0 28:1 29:0 30:0 31:0 32:0 33:0 34:0 35:0 36:0 37:2002 38:0.30247235 39:0 40:0 41:0 42:1 43:0 44:0 45:0 46:0 47:0 48:0 49:0.33333334 50:0.33333334 51:0 52:0 53:0 54:0 55:0 56:0 57:0.53877276 58:0 59:0 60:0.066117331 61:0 62:0 63:0 64:1 65:0 66:0 67:0 68:2006.6666 69:0.41941744 70:0.73096061 71:0 72:0 73:0 74:0 75:0.52387911 76:0 77:0 78:0 79:0 80:1 81:2009 82:0 83:0 84:0 85:0 86:0 87:1 88:0 89:0 90:0 91:0 92:0 93:0 94:0 95:1 96:0 97:0 98:0 99:0 100:0 101:0.33333334 102:0 103:0.33333334 104:0.33333334 105:0 106:0 107:0 108:0 109:0 110:0 111:0 112:0 113:0 114:0 115:0 116:0 117:0 118:1 119:0 120:0 121:0 122:0 123:0 124:0 125:0 126:0 127:0 128:0.93281829 129:0 130:0 131:0 132:0 # 
-0.0060000000000000001249000902703301 1:1 2:1 3:0 4:0 5:0 6:0 7:0 8:0 9:0 10:0 11:0.39125851 12:0 13:0 14:1 15:0 16:1 17:0 18:0 19:0 20:0 21:1 22:0 23:1 24:0 25:0 26:0 27:0 28:0 29:1 30:0 31:0 32:0 33:0 34:0 35:0 36:0 37:1982 38:0.42960313 39:0 40:0 41:0 42:0 43:0 44:0 45:1 46:1 47:0 48:0 49:0 50:0 51:0 52:0 53:0 54:0 55:1 56:0 57:0.074152239 58:0 59:0 60:0.35705182 61:0 62:0 63:0 64:0 65:0 66:0 67:0 68:1982 69:0 70:0.4494704 71:0 72:0 73:0 74:1 75:0.10952081 76:0 77:0 78:0 79:0 80:0 81:1982 82:0 83:1 84:0 85:0 86:0 87:0 88:0 89:0 90:0 91:1 92:0 93:0 94:0 95:1 96:0 97:0 98:0 99:0 100:0 101:0 102:0 103:0 104:0 105:1 106:1 107:0 108:0 109:0 110:0 111:0 112:1 113:0 114:0 115:0 116:0 117:0 118:0 119:0 120:1 121:0 122:0 123:1 124:0 125:0 126:0 127:0 128:0.70811605 129:0 130:0 131:0 132:0 # 
-0.0060000000000000001249000902703301 1:0 2:0 3:0 4:0 5:0 6:0 7:0 8:0 9:0 10:0 11:0.57765514 12:0 13:0 14:0 15:0 16:0.5 17:0.5 18:0 19:0 20:0 21:1 22:0 23:0 24:0 25:0 26:0 27:0 28:1 29:0 30:0 31:0 32:0 33:0 34:0 35:1 36:0 37:2007 38:0.62726742 39:0 40:0 41:0 42:0 43:0 44:0 45:0 46:0 47:0 48:1 49:0 50:1 51:0 52:0 53:0 54:0 55:0 56:0 57:0.35870177 58:0 59:0 60:0.0061913868 61:0 62:0 63:0 64:0 65:0 66:0 67:0 68:2008 69:0.63534486 70:0.87431985 71:0 72:0 73:0 74:0 75:0.54871207 76:0 77:1 78:0 79:0 80:0 81:2009 82:0 83:0 84:0 85:0 86:0 87:1 88:0 89:0 90:0 91:0 92:0 93:0 94:0 95:0 96:0 97:0 98:0 99:0 100:0 101:0 102:0 103:0.5 104:0.5 105:0 106:0 107:0 108:0 109:0 110:0 111:0 112:0 113:0 114:0 115:0 116:0 117:1 118:0 119:0 120:0 121:0 122:1 123:0 124:0 125:0 126:0 127:0 128:0.93319726 129:0 130:0 131:0 132:0 # 
-0.0054825424003865919075906276702881 1:0 2:0 3:0 4:0 5:0 6:0 7:0 8:1 9:1 10:1 11:0.27509236 12:0 13:0 14:0 15:0 16:0 17:1 18:0 19:0 20:0 21:0 22:0 23:0 24:0 25:0 26:0 27:0 28:0 29:0 30:0 31:1 32:0 33:0 34:0 35:0 36:0 37:2003 38:0.2898894 39:0 40:0 41:0 42:0 43:1 44:0 45:0 46:0 47:0 48:0 49:0 50:1 51:0 52:0 53:0 54:0.5 55:0 56:0 57:0.57213622 58:0 59:0 60:0.012109624 61:0 62:0 63:0 64:0 65:0 66:0 67:1 68:2004.5 69:0.29923517 70:0.81948185 71:0 72:0 73:1 74:0 75:0.23670611 76:0 77:0 78:0 79:0 80:0 81:2006 82:0 83:0 84:1 85:0 86:0 87:0 88:0 89:0 90:0 91:0 92:0 93:0 94:1 95:0 96:1 97:0 98:0 99:0 100:0 101:0 102:0.5 103:0 104:0 105:0 106:0 107:0 108:0 109:0 110:0 111:0 112:0 113:0 114:0 115:0 116:1 117:0 118:0 119:1 120:0 121:0 122:0 123:0 124:0 125:1 126:0 127:1 128:0.53542745 129:0 130:0 131:0 132:0 # 
-0.0060000000000000001249000902703301 1:0 2:0 3:0 4:0 5:0 6:0 7:0 8:0 9:1 10:0 11:0.36048651 12:1 13:0 14:1 15:0 16:0.33333334 17:0.66666669 18:0 19:0 20:0 21:0 22:0 23:0 24:0 25:0 26:0 27:1 28:1 29:0 30:0 31:1 32:0 33:0 34:0 35:0 36:1 37:2006 38:0.36968121 39:0 40:1 41:1 42:1 43:0 44:0 45:0 46:1 47:0 48:0 49:0 50:1 51:0 52:0 53:0.33333334 54:0 55:0 56:0 57:0.4601002 58:0 59:1 60:0.016874563 61:1 62:0 63:0 64:1 65:0 66:0 67:0 68:2006.6666 69:0.41967428 70:0.88909113 71:0 72:1 73:0 74:0 75:0.45862168 76:0 77:0 78:0 79:0 80:1 81:2008 82:0 83:0 84:0 85:0 86:0 87:0 88:0 89:0 90:0 91:0 92:0 93:0 94:1 95:0 96:0 97:0 98:0 99:0.66666669 100:0 101:0 102:0 103:0 104:0 105:0 106:0 107:0 108:0 109:0 110:0 111:0 112:0 113:0 114:0 115:0 116:1 117:1 118:0 119:1 120:0 121:1 122:0 123:0 124:0 125:1 126:0 127:0 128:0.88282722 129:0 130:1 131:0 132:0 # 
0.0063000000000000000444089209850063 1:0 2:0 3:0 4:0 5:0 6:0 7:0 8:0 9:0 10:0 11:0.12972865 12:0 13:0 14:0 15:0 16:0 17:1 18:0 19:0 20:0 21:0 22:0 23:0 24:0 25:0 26:0 27:1 28:1 29:0 30:0 31:1 32:0 33:0 34:0 35:0 36:0 37:2006 38:0.13944048 39:0 40:0 41:0 42:0 43:0 44:0 45:1 46:0 47:0 48:0 49:0 50:0 51:0 52:0 53:0 54:0 55:1 56:0 57:0.20975676 58:0 59:0 60:0.0067376853 61:1 62:0 63:0 64:0 65:0 66:0 67:0 68:2006 69:0.63924849 70:0.73849314 71:0 72:0 73:0 74:0 75:0.29394373 76:0 77:0 78:0 79:0 80:1 81:2006 82:0 83:0 84:0 85:0 86:0 87:0 88:0 89:0 90:0 91:0 92:0 93:0 94:0 95:0 96:0 97:0 98:0 99:0 100:0 101:0 102:0 103:0 104:0 105:1 106:0 107:0 108:0 109:0 110:0 111:0 112:0 113:0 114:1 115:0 116:0 117:0 118:0 119:0 120:0 121:0 122:0 123:0 124:0 125:0 126:0 127:0 128:0.060145371 129:0 130:0 131:0 132:0 # 
0.0063000000000000000444089209850063 1:0 2:0 3:0 4:0 5:0 6:1 7:0 8:1 9:1 10:0 11:0.34118068 12:1 13:0 14:1 15:0 16:0 17:1 18:0 19:0 20:0 21:0 22:0 23:0 24:0 25:0 26:0 27:1 28:1 29:0 30:0 31:1 32:1 33:0 34:0 35:0 36:1 37:2006 38:0.34746909 39:1 40:1 41:1 42:1 43:0 44:0 45:0 46:0 47:0 48:0 49:0 50:1 51:0 52:0 53:0 54:0 55:0 56:1 57:0.36571062 58:0 59:0 60:0.018801784 61:0 62:0 63:0 64:1 65:0 66:0 67:0 68:2006 69:0.21508032 70:0.76566041 71:0 72:0 73:1 74:0 75:0.18046302 76:0 77:0 78:0 79:0 80:1 81:2006 82:0 83:0 84:0 85:0 86:0 87:0 88:0 89:0 90:1 91:0 92:0 93:0 94:0 95:0 96:0 97:0 98:0 99:0 100:0 101:0 102:0 103:1 104:0 105:0 106:1 107:0 108:0 109:0 110:0 111:0 112:0 113:1 114:1 115:0 116:0 117:0 118:0 119:1 120:0 121:0 122:0 123:0 124:0 125:1 126:0 127:0 128:0.70717901 129:0 130:1 131:0 132:0 # 
-0.0060000000000000001249000902703301 1:0 2:0 3:0 4:0 5:0 6:0 7:0 8:0 9:0 10:0 11:0.20928337 12:0 13:0 14:0 15:0 16:0 17:1 18:0 19:0 20:0 21:0 22:0 23:0 24:0 25:0 26:0 27:0 28:1 29:0 30:0 31:1 32:0 33:0 34:0 35:0 36:0 37:1991 38:0.21720235 39:0 40:0 41:0 42:0 43:0 44:0 45:0 46:0 47:0 48:0 49:0 50:1 51:0 52:0 53:0 54:0 55:0 56:0 57:0.52542877 58:0 59:0 60:0.012109624 61:1 62:1 63:0 64:1 65:1 66:0 67:0 68:1991 69:0 70:0.69701606 71:0 72:0 73:0 74:0 75:0.19783778 76:0 77:0 78:0 79:0 80:0 81:1991 82:0 83:0 84:0 85:0 86:0 87:1 88:0 89:0 90:0 91:0 92:0 93:0 94:1 95:0 96:0 97:0 98:0 99:0 100:0 101:0 102:0 103:0 104:0 105:0 106:0 107:1 108:0 109:1 110:0 111:0 112:0 113:0 114:0 115:0 116:1 117:0 118:0 119:0 120:0 121:0 122:0 123:0 124:0 125:0 126:0 127:0 128:0.65656996 129:0 130:0 131:0 132:0 # 
-0.0060000000000000001249000902703301 1:0 2:0 3:0 4:0 5:0 6:0 7:0 8:0 9:0 10:0 11:0.53846574 12:0 13:0 14:1 15:0 16:0 17:1 18:0 19:0 20:0 21:0 22:0 23:0 24:0 25:0 26:0 27:0 28:0 29:0 30:0 31:0 32:0 33:0 34:0 35:0 36:0 37:2005 38:0.5486272 39:1 40:0 41:0 42:0 43:0 44:0 45:0 46:0 47:0 48:0 49:0 50:1 51:0 52:0 53:0 54:0 55:0 56:0 57:0.32771048 58:0 59:0 60:0.0052353637 61:0 62:0 63:0 64:0 65:1 66:0 67:1 68:2005 69:0.31956598 70:0.79135603 71:0 72:0 73:0 74:0 75:0.91219574 76:0 77:0 78:0 79:0 80:0 81:2005 82:0 83:0 84:0 85:0 86:0 87:0 88:0 89:0 90:0 91:0 92:0 93:0 94:0 95:1 96:0 97:0 98:0 99:0 100:1 101:0 102:0 103:0 104:0 105:0 106:0 107:0 108:0 109:0 110:0 111:0 112:0 113:0 114:0 115:0 116:0 117:0 118:0 119:0 120:0 121:0 122:0 123:0 124:0 125:0 126:0 127:0 128:0.19244136 129:0 130:0 131:0 132:0 # 
0.0063000000000000000444089209850063 1:0 2:0 3:0 4:0 5:0 6:0 7:0 8:0 9:1 10:0 11:0.20666263 12:0 13:1 14:0 15:0 16:0 17:1 18:0 19:0 20:0 21:0 22:0 23:0 24:0 25:0 26:0 27:0 28:0 29:0 30:0 31:1 32:0 33:0 34:0 35:0 36:1 37:2005 38:0.21911517 39:0 40:0 41:0 42:0 43:0 44:0 45:1 46:0 47:0 48:0 49:0 50:1 51:0 52:0 53:0 54:0 55:0 56:1 57:0.35125715 58:0 59:0 60:0.0064645363 61:0 62:0 63:0 64:0 65:0 66:0 67:0 68:2007 69:0.37952334 70:0.93761015 71:0 72:1 73:0 74:0 75:0.21921848 76:0 77:0 78:0 79:0 80:0 81:2009 82:0 83:0 84:0 85:0 86:0 87:0 88:0 89:0 90:1 91:0 92:0 93:0 94:0 95:0 96:0 97:0 98:0 99:0 100:0.5 101:0 102:0 103:0 104:0 105:0 106:0 107:0.5 108:0 109:0 110:0 111:0 112:0 113:0 114:0 115:0 116:0 117:0 118:0 119:1 120:0 121:0 122:0 123:0 124:0 125:0 126:0 127:0 128:0.75372797 129:0 130:0 131:0 132:0 # 
0.0063000000000000000444089209850063 1:0 2:0 3:0 4:0 5:0 6:0 7:0 8:0 9:1 10:0 11:0.36078888 12:1 13:0 14:1 15:0 16:1 17:0 18:0 19:0 20:0 21:0 22:0 23:0 24:0 25:0 26:0 27:0 28:1 29:0 30:0 31:1 32:0 33:0 34:0 35:0 36:1 37:2008 38:0.3672609 39:0 40:0 41:0 42:1 43:0 44:0 45:0 46:0 47:0 48:1 49:0 50:0 51:0 52:0 53:0 54:0 55:1 56:0 57:0.53254265 58:0 59:0 60:0.0055085132 61:0 62:0 63:0 64:1 65:0 66:0 67:0 68:2008 69:0.42744657 70:0.83686078 71:0 72:1 73:1 74:0 75:0.17300105 76:1 77:0 78:0 79:0 80:1 81:2008 82:1 83:0 84:0 85:0 86:0 87:0 88:0 89:0 90:0 91:0 92:0 93:0 94:0 95:0 96:0 97:0 98:0 99:0 100:0 101:1 102:0 103:0 104:0 105:0 106:0 107:0 108:0 109:0 110:0 111:0 112:0 113:0 114:0 115:0 116:0 117:0 118:0 119:1 120:0 121:0 122:0 123:0 124:0 125:0 126:0 127:0 128:0.885548 129:0 130:0 131:0 132:0 # 
-0.0060000000000000001249000902703301 1:1 2:1 3:0 4:0 5:0 6:0 7:0 8:0 9:1 10:0 11:0.1008495 12:0 13:0 14:1 15:0 16:0.5 17:0.5 18:0 19:0 20:0 21:0 22:1 23:0 24:1 25:0 26:0 27:0 28:0 29:1 30:0 31:1 32:0 33:0 34:0 35:0 36:1 37:1987 38:0.1107287 39:0 40:0 41:0 42:0 43:0 44:0 45:1 46:1 47:1 48:0 49:0 50:0 51:0.5 52:0 53:0 54:0 55:0 56:0 57:0.13439962 58:0 59:1 60:0.10279523 61:1 62:0 63:0 64:0 65:1 66:0 67:0 68:1994 69:0.64510304 70:0.59505647 71:0 72:1 73:0 74:1 75:0.24441889 76:0 77:0 78:0 79:0 80:0 81:2001 82:0 83:1 84:0 85:1 86:0 87:1 88:0 89:0 90:0 91:0 92:0 93:1 94:1 95:0 96:0 97:1 98:0 99:0 100:0 101:0.5 102:0.5 103:0 104:0 105:0 106:1 107:0 108:0 109:1 110:0 111:0 112:0 113:0 114:1 115:0 116:0 117:0 118:0 119:1 120:0 121:0 122:0 123:0 124:1 125:0 126:0 127:0 128:0.73400003 129:0 130:1 131:0 132:0 # 
-0.0060000000000000001249000902703301 1:1 2:0 3:0 4:0 5:0 6:0 7:0 8:0 9:0 10:0 11:0.68977237 12:0 13:0 14:1 15:0 16:0.42857143 17:0.5714286 18:0 19:1 20:0 21:0 22:0 23:0 24:0 25:0 26:1 27:1 28:0 29:1 30:1 31:0 32:0 33:0 34:0 35:0 36:0 37:1990 38:0.69566315 39:0 40:0 41:0 42:0 43:0 44:0 45:0 46:0 47:0 48:0 49:0.14285715 50:0.71428573 51:0 52:0 53:0 54:0 55:0 56:0 57:0.29549444 58:0 59:0 60:0.021806428 61:0 62:0 63:0 64:0 65:0 66:0 67:0 68:1997.4286 69:0.66236365 70:0.80109596 71:0 72:0 73:0 74:0 75:0.47126746 76:1 77:0 78:0 79:0 80:0 81:2005 82:0 83:1 84:0 85:0 86:0 87:0 88:0 89:0 90:0 91:0 92:0 93:0 94:0 95:0 96:0 97:1 98:0.14285715 99:0 100:0.14285715 101:0.2857143 102:0 103:0.2857143 104:0 105:0 106:1 107:0.14285715 108:0 109:0 110:0 111:0 112:0 113:0 114:1 115:0 116:0 117:0 118:0 119:0 120:0 121:0 122:0 123:0 124:0 125:0 126:0 127:0 128:0.83435374 129:0 130:0 131:0 132:0 # 
0.0063000000000000000444089209850063 1:1 2:0 3:0 4:1 5:1 6:0 7:0 8:0 9:0 10:0 11:0.15589245 12:1 13:0 14:0 15:0 16:0 17:1 18:0 19:1 20:0 21:1 22:0 23:1 24:0 25:0 26:0 27:0 28:1 29:0 30:0 31:1 32:1 33:0 34:0 35:0 36:0 37:2008 38:0.16130124 39:0 40:0 41:0 42:0 43:0 44:0 45:0 46:0 47:0 48:0 49:0 50:1 51:0 52:0 53:0 54:1 55:0 56:0 57:0.22526552 58:0 59:0 60:0.023900574 61:1 62:1 63:0 64:1 65:1 66:0 67:0 68:2008 69:0 70:0.85486901 71:0 72:0 73:1 74:0 75:0.20996724 76:0 77:0 78:0 79:0 80:0 81:2008 82:0 83:0 84:0 85:0 86:0 87:1 88:0 89:0 90:0 91:1 92:0 93:0 94:1 95:0 96:0 97:0 98:0 99:0 100:0 101:0 102:0 103:0 104:0 105:0 106:1 107:0 108:0 109:1 110:0 111:0 112:0 113:1 114:0 115:0 116:1 117:0 118:0 119:0 120:1 121:0 122:0 123:0 124:1 125:1 126:0 127:1 128:0.67352384 129:1 130:0 131:0 132:0 # 
-0.0060000000000000001249000902703301 1:0 2:0 3:0 4:0 5:0 6:0 7:0 8:0 9:0 10:0 11:0.27861044 12:0 13:0 14:0 15:0 16:1 17:0 18:0 19:0 20:0 21:0 22:0 23:0 24:0 25:0 26:0 27:0 28:0 29:0 30:0 31:1 32:0 33:0 34:0 35:0 36:1 37:2006 38:0.30890045 39:0 40:1 41:0 42:0 43:1 44:0 45:0 46:0 47:0 48:0 49:0 50:0 51:0 52:0 53:0 54:0 55:0 56:0 57:0.40780583 58:0 59:0 60:0.010061003 61:0 62:0 63:0 64:0 65:0 66:0 67:0 68:2006 69:0 70:0.85715389 71:1 72:1 73:0 74:0 75:0.21921848 76:0 77:0 78:1 79:0 80:0 81:2006 82:0 83:0 84:0 85:0 86:0 87:0 88:0 89:0 90:1 91:0 92:0 93:0 94:1 95:0 96:0 97:0 98:0 99:1 100:0 101:0 102:0 103:0 104:0 105:0 106:0 107:0 108:0 109:0 110:0 111:0 112:0 113:0 114:0 115:0 116:0 117:0 118:0 119:0 120:0 121:0 122:0 123:0 124:0 125:0 126:0 127:0 128:0.75372797 129:0 130:0 131:0 132:0 # 
-0.00064103334625542629510164260864258 1:0 2:0 3:0 4:0 5:1 6:0 7:0 8:1 9:0 10:0 11:0.41437954 12:0 13:1 14:0 15:0 16:1 17:0 18:0 19:1 20:0 21:0 22:0 23:0 24:0 25:0 26:0 27:0 28:0 29:0 30:0 31:0 32:0 33:0 34:0 35:0 36:0 37:2003 38:0.43091086 39:1 40:0 41:0 42:0 43:0 44:0 45:1 46:0 47:0 48:0 49:0 50:1 51:0 52:0 53:0 54:0 55:0 56:0 57:0.31799257 58:0 59:0 60:0.19794227 61:1 62:0 63:0 64:0 65:1 66:0 67:0 68:2005.5 69:0.39584357 70:0.75852489 71:0 72:0 73:0 74:0 75:0.21921848 76:0 77:0 78:0 79:0 80:1 81:2008 82:0 83:0 84:0 85:0 86:0 87:0 88:0 89:0 90:0 91:0 92:0 93:0 94:1 95:0 96:0 97:0 98:0.5 99:0 100:0 101:0 102:0 103:0 104:0 105:0 106:0 107:0 108:0.5 109:0 110:0 111:0 112:0 113:0 114:0 115:0 116:0 117:1 118:0 119:0 120:0 121:0 122:0 123:0 124:1 125:1 126:0 127:0 128:0.75372797 129:0 130:1 131:0 132:0 # 
-0.0060000000000000001249000902703301 1:0 2:0 3:0 4:0 5:0 6:1 7:0 8:0 9:1 10:0 11:0.27180102 12:0 13:0 14:0 15:0 16:0 17:1 18:0 19:0 20:0 21:0 22:0 23:0 24:0 25:0 26:0 27:0 28:1 29:0 30:0 31:1 32:0 33:0 34:0 35:0 36:0 37:1995 38:0.27044892 39:0 40:0 41:0 42:0 43:0 44:0 45:0 46:0 47:0 48:0 49:0 50:0 51:0 52:0 53:0 54:0 55:0 56:0 57:0.43532678 58:0 59:0 60:0 61:0 62:0 63:0 64:0 65:0 66:0 67:0 68:1995 69:0 70:0.78428829 71:0 72:0 73:1 74:0 75:0.19205585 76:0 77:0 78:0 79:0 80:0 81:1995 82:1 83:0 84:0 85:0 86:0 87:1 88:0 89:0 90:0 91:0 92:0 93:0 94:0 95:1 96:0 97:0 98:1 99:0 100:0 101:0 102:0 103:0 104:0 105:0 106:1 107:0 108:0 109:0 110:0 111:0 112:0 113:0 114:0 115:0 116:0 117:0 118:0 119:1 120:0 121:0 122:0 123:0 124:0 125:0 126:0 127:0 128:0.64454931 129:0 130:0 131:1 132:0 # 
0.0063000000000000000444089209850063 1:0 2:0 3:0 4:0 5:0 6:0 7:0 8:0 9:0 10:0 11:0.34797207 12:0 13:0 14:0 15:0 16:1 17:0 18:0 19:0 20:0 21:0 22:1 23:0 24:1 25:0 26:0 27:1 28:0 29:1 30:0 31:1 32:0 33:0 34:0 35:1 36:0 37:2006 38:0.35031879 39:0 40:1 41:0 42:0 43:0 44:0 45:0 46:0 47:0 48:0 49:0 50:1 51:0 52:0 53:0 54:0 55:0 56:0 57:0.27098855 58:0 59:1 60:0.0059637623 61:0 62:0 63:0 64:0 65:0 66:0 67:0 68:2006 69:0.2669552 70:0.86427975 71:1 72:0 73:0 74:0 75:0.5098089 76:0 77:1 78:1 79:0 80:0 81:2006 82:0 83:1 84:0 85:0 86:0 87:0 88:0 89:0 90:0 91:1 92:0 93:0 94:0 95:0 96:0 97:1 98:0 99:0 100:0 101:0 102:0 103:0 104:1 105:0 106:1 107:0 108:0 109:0 110:0 111:0 112:0 113:0 114:0 115:0 116:0 117:0 118:0 119:0 120:0 121:0 122:1 123:0 124:0 125:0 126:0 127:0 128:0.76797867 129:0 130:0 131:0 132:0 # 
-0.0060000000000000001249000902703301 1:1 2:0 3:0 4:0 5:1 6:1 7:0 8:0 9:1 10:0 11:0.251122 12:1 13:0 14:1 15:1 16:0 17:1 18:0 19:0 20:0 21:0 22:1 23:0 24:0 25:0 26:1 27:0 28:1 29:1 30:0 31:1 32:0 33:0 34:0 35:0 36:1 37:2007 38:0.27044892 39:0 40:1 41:1 42:1 43:0 44:0 45:0 46:1 47:0 48:1 49:0 50:1 51:0 52:0 53:0 54:0 55:0 56:1 57:0.20562494 58:0 59:1 60:0.0072839842 61:0 62:0 63:0 64:1 65:0 66:0 67:0 68:2007 69:0.48306456 70:0.78483045 71:0 72:1 73:0 74:1 75:0.52542669 76:0 77:0 78:0 79:0 80:1 81:2007 82:0 83:1 84:0 85:0 86:0 87:0 88:0 89:0 90:1 91:0 92:0 93:0 94:0 95:0 96:0 97:0 98:0 99:0 100:0 101:0 102:0 103:0 104:0 105:1 106:1 107:0 108:0 109:0 110:0 111:0 112:0 113:0 114:0 115:1 116:0 117:0 118:0 119:1 120:0 121:0 122:0 123:0 124:0 125:0 126:0 127:0 128:0.90698004 129:0 130:0 131:0 132:0 # 
-0.0060000000000000001249000902703301 1:0 2:0 3:0 4:0 5:0 6:0 7:0 8:0 9:0 10:0 11:0.28187096 12:0 13:0 14:1 15:0 16:1 17:0 18:0 19:0 20:0 21:1 22:0 23:0 24:0 25:0 26:0 27:0 28:0 29:1 30:0 31:1 32:0 33:0 34:0 35:0 36:1 37:2007 38:0.29968771 39:0 40:0 41:0 42:0 43:0 44:0 45:0 46:0 47:0 48:1 49:0 50:0 51:0 52:0 53:0 54:0 55:0 56:0 57:0.20885375 58:0 59:0 60:0 61:0 62:0 63:0 64:0 65:0 66:0 67:0 68:2007 69:0.47334653 70:0.88616073 71:0 72:1 73:1 74:0 75:0.21468197 76:0 77:1 78:0 79:0 80:0 81:2007 82:0 83:0 84:0 85:0 86:0 87:0 88:0 89:0 90:1 91:0 92:0 93:0 94:0 95:0 96:0 97:0 98:0 99:0 100:0 101:0 102:0 103:0 104:0 105:1 106:0 107:0 108:0 109:1 110:0 111:0 112:0 113:1 114:0 115:0 116:0 117:0 118:0 119:0 120:0 121:0 122:0 123:0 124:0 125:0 126:1 127:0 128:0.67819953 129:0 130:0 131:0 132:0 # 
-0.0060000000000000001249000902703301 1:1 2:0 3:0 4:0 5:0 6:0 7:1 8:0 9:0 10:0 11:0.27521324 12:0 13:0 14:1 15:0 16:0 17:1 18:0 19:0 20:0 21:1 22:0 23:0 24:0 25:0 26:0 27:1 28:0 29:1 30:0 31:1 32:0 33:0 34:0 35:1 36:1 37:2006 38:0.27384517 39:0 40:0 41:0 42:0 43:0 44:0 45:0 46:0 47:0 48:1 49:0 50:1 51:0 52:0 53:0 54:0 55:0 56:0 57:0.24916393 58:0 59:1 60:0.0035054174 61:0 62:0 63:0 64:0 65:0 66:0 67:0 68:2006 69:0 70:0.86817187 71:0 72:1 73:1 74:0 75:0.23466945 76:0 77:1 78:1 79:0 80:1 81:2006 82:0 83:0 84:1 85:0 86:0 87:0 88:1 89:0 90:1 91:1 92:0 93:0 94:0 95:0 96:0 97:0 98:0 99:0 100:1 101:0 102:0 103:0 104:0 105:0 106:1 107:0 108:0 109:1 110:0 111:0 112:0 113:1 114:0 115:0 116:0 117:0 118:0 119:0 120:0 121:0 122:1 123:0 124:0 125:0 126:0 127:0 128:0.68073964 129:0 130:0 131:0 132:0 # 
0.0063000000000000000444089209850063 1:1 2:0 3:0 4:0 5:0 6:0 7:0 8:0 9:1 10:0 11:0.61543125 12:0 13:0 14:0 15:1 16:1 17:0 18:1 19:0 20:0 21:1 22:0 23:1 24:0 25:0 26:1 27:0 28:0 29:0 30:1 31:1 32:0 33:0 34:1 35:0 36:0 37:2001 38:0.61877686 39:0 40:0 41:0 42:1 43:0 44:0 45:0 46:1 47:0 48:0 49:0 50:1 51:0 52:0 53:0 54:0 55:0 56:1 57:0.38579747 58:1 59:0 60:0 61:0 62:0 63:1 64:0 65:0 66:0 67:1 68:2001 69:0 70:0.88300449 71:0 72:0 73:0 74:1 75:0.10952081 76:1 77:0 78:0 79:0 80:0 81:2001 82:0 83:1 84:1 85:0 86:0 87:0 88:0 89:1 90:0 91:0 92:1 93:0 94:0 95:1 96:0 97:0 98:0 99:0 100:0 101:0 102:0 103:0 104:1 105:0 106:1 107:0 108:0 109:0 110:1 111:0 112:1 113:0 114:0 115:1 116:0 117:0 118:0 119:1 120:0 121:0 122:0 123:0 124:0 125:1 126:0 127:1 128:0.70811605 129:0 130:0 131:0 132:1 # 
0.0063000000000000000444089209850063 1:0 2:0 3:0 4:0 5:0 6:0 7:0 8:0 9:0 10:0 11:0.1808798 12:0 13:0 14:0 15:0 16:0 17:1 18:0 19:0 20:0 21:1 22:0 23:0 24:1 25:0 26:0 27:1 28:1 29:1 30:0 31:1 32:0 33:0 34:0 35:1 36:0 37:2000 38:0.18437216 39:0 40:1 41:1 42:0 43:0 44:0 45:0 46:0 47:0 48:0 49:0 50:0 51:0 52:0 53:0 54:0.33333334 55:1 56:0 57:0.28792706 58:0 59:1 60:0.023855049 61:1 62:0 63:0 64:0 65:1 66:0 67:0 68:2002 69:0.54947495 70:0.87083113 71:0 72:0 73:1 74:0 75:0.099981718 76:0 77:0 78:1 79:0 80:0 81:2003 82:0 83:0 84:0 85:0 86:0 87:0 88:1 89:0 90:0 91:0 92:0 93:0 94:1 95:0 96:0 97:0 98:0 99:0 100:0 101:0.33333334 102:0 103:0 104:0 105:0 106:0 107:0 108:0.33333334 109:1 110:0 111:0 112:0 113:0 114:0 115:0 116:0 117:0 118:0 119:0 120:0 121:0 122:1 123:1 124:0 125:0 126:0 127:0 128:0.71268898 129:0 130:0 131:0 132:0 # 
0.0063000000000000000444089209850063 1:1 2:0 3:0 4:0 5:1 6:0 7:0 8:0 9:0 10:0 11:0.2800402 12:0 13:0 14:1 15:0 16:1 17:0 18:0 19:0 20:0 21:0 22:0 23:1 24:1 25:1 26:0 27:1 28:1 29:1 30:0 31:1 32:0 33:0 34:1 35:0 36:1 37:2002 38:0.2945348 39:0 40:0 41:0 42:0 43:0 44:0 45:0 46:0 47:0 48:0 49:0 50:1 51:0 52:0 53:0 54:0 55:0 56:1 57:0.24033327 58:0 59:0 60:0.0051443139 61:0 62:0 63:0 64:1 65:1 66:0 67:0 68:2002 69:0.60211998 70:0.88554114 71:0 72:1 73:0 74:1 75:0.10042699 76:0 77:0 78:0 79:0 80:1 81:2002 82:0 83:1 84:0 85:0 86:0 87:0 88:0 89:0 90:0 91:0 92:0 93:0 94:1 95:0 96:0 97:0 98:0 99:1 100:0 101:0 102:0 103:0 104:0 105:0 106:1 107:0 108:0 109:1 110:0 111:0 112:0 113:0 114:0 115:0 116:0 117:0 118:0 119:1 120:0 121:0 122:0 123:1 124:1 125:1 126:0 127:0 128:0.71292245 129:0 130:0 131:0 132:0 # 
0.0063000000000000000444089209850063 1:0 2:0 3:0 4:0 5:0 6:0 7:0 8:0 9:0 10:0 11:0.18249553 12:0 13:0 14:1 15:0 16:0.5 17:0.5 18:0 19:0 20:0 21:0 22:0 23:0 24:0 25:0 26:0 27:0 28:0 29:0 30:0 31:1 32:0 33:0 34:0 35:1 36:0 37:2005 38:0.18763176 39:0 40:0 41:0 42:0 43:0 44:0 45:0 46:0 47:0 48:0 49:0 50:1 51:0 52:0 53:0 54:0.5 55:0 56:0 57:0.25224835 58:0 59:0 60:0.023058362 61:0 62:0 63:0 64:0 65:0 66:0 67:0 68:2005 69:0.64884853 70:0.92604029 71:0 72:0 73:1 74:0 75:0.22104327 76:0 77:1 78:1 79:0 80:0 81:2005 82:0 83:0 84:0 85:0 86:0 87:0 88:0 89:0 90:1 91:0 92:0 93:0 94:0 95:0 96:0 97:0 98:0.5 99:0 100:0 101:0 102:0 103:0 104:0 105:0 106:0 107:0 108:0 109:1 110:0 111:0 112:0 113:0 114:0 115:0 116:0 117:0 118:0 119:0 120:0 121:0 122:1 123:0 124:0 125:0 126:0 127:0 128:0.71846426 129:0 130:0 131:0 132:0 # 
-0.0060000000000000001249000902703301 1:1 2:0 3:0 4:0 5:0 6:0 7:0 8:0 9:0 10:0 11:0.63049936 12:0 13:0 14:0 15:0 16:1 17:0 18:0 19:0 20:0 21:0 22:0 23:0 24:0 25:0 26:1 27:0 28:0 29:1 30:0 31:1 32:0 33:0 34:1 35:0 36:0 37:2007 38:0.62736499 39:0 40:0 41:0 42:0 43:0 44:0 45:0 46:0 47:0 48:0 49:0 50:0 51:1 52:0 53:0 54:0 55:0 56:0 57:0.26156464 58:0 59:1 60:0 61:1 62:0 63:0 64:0 65:0 66:0 67:0 68:2007 69:0.40511572 70:0.87481362 71:0 72:0 73:1 74:0 75:0.17471513 76:0 77:1 78:0 79:0 80:0 81:2007 82:0 83:0 84:0 85:0 86:0 87:0 88:1 89:0 90:1 91:0 92:0 93:0 94:0 95:0 96:0 97:0 98:0 99:0 100:0 101:0 102:0 103:0 104:1 105:0 106:1 107:0 108:0 109:1 110:0 111:0 112:0 113:0 114:0 115:0 116:0 117:0 118:0 119:0 120:0 121:0 122:1 123:0 124:0 125:0 126:0 127:0 128:0.64497554 129:0 130:0 131:0 132:0 # 
-0.0060000000000000001249000902703301 1:0 2:0 3:0 4:0 5:1 6:0 7:0 8:0 9:0 10:0 11:0.30179155 12:0 13:0 14:1 15:1 16:0 17:1 18:0 19:0 20:0 21:0 22:0 23:1 24:1 25:0 26:1 27:0 28:0 29:0 30:1 31:1 32:0 33:0 34:1 35:0 36:0 37:1996 38:0.31397527 39:1 40:0 41:0 42:0 43:0 44:0 45:0 46:0 47:0 48:0 49:0 50:1 51:0 52:0 53:0 54:0 55:0 56:1 57:0.54347861 58:0 59:0 60:0 61:0 62:0 63:1 64:0 65:0 66:0 67:0 68:1996 69:0.46237993 70:0.79050404 71:0 72:0 73:0 74:0 75:0.24777994 76:0 77:0 78:0 79:0 80:0 81:1996 82:0 83:0 84:0 85:0 86:0 87:0 88:0 89:0 90:1 91:0 92:0 93:0 94:0 95:1 96:0 97:0 98:0 99:0 100:1 101:0 102:0 103:0 104:0 105:0 106:1 107:0 108:0 109:0 110:0 111:1 112:1 113:0 114:1 115:1 116:0 117:0 118:0 119:1 120:0 121:0 122:0 123:0 124:0 125:0 126:0 127:0 128:0.74527943 129:1 130:0 131:0 132:0 # 
0.0063000000000000000444089209850063 1:0 2:0 3:0 4:0 5:0 6:0 7:1 8:0 9:0 10:0 11:0.30495146 12:0 13:0 14:1 15:0 16:0 17:1 18:0 19:0 20:0 21:0 22:0 23:0 24:0 25:0 26:0 27:0 28:0 29:1 30:0 31:1 32:0 33:0 34:0 35:1 36:0 37:2003 38:0.30343527 39:0 40:0 41:0 42:0 43:0 44:0 45:0 46:0 47:0 48:0 49:0 50:1 51:0 52:0 53:0 54:0 55:0 56:0 57:0.49047372 58:0 59:0 60:0 61:0 62:0 63:0 64:0 65:0 66:0 67:0 68:2003 69:0.77057886 70:0.90647328 71:0 72:0 73:1 74:0 75:0.10822269 76:0 77:1 78:1 79:0 80:0 81:2003 82:0 83:0 84:0 85:0 86:0 87:0 88:1 89:0 90:1 91:1 92:0 93:0 94:0 95:0 96:0 97:1 98:1 99:0 100:0 101:0 102:0 103:0 104:0 105:0 106:1 107:0 108:0 109:1 110:0 111:0 112:0 113:0 114:0 115:0 116:0 117:0 118:0 119:0 120:0 121:0 122:1 123:0 124:0 125:0 126:0 127:0 128:0.68240082 129:0 130:0 131:0 132:0 # 
0.0063000000000000000444089209850063 1:0 2:0 3:0 4:0 5:0 6:0 7:0 8:0 9:0 10:0 11:0.55731851 12:0 13:0 14:0 15:0 16:0 17:1 18:0 19:0 20:0 21:0 22:0 23:0 24:1 25:0 26:1 27:1 28:1 29:0 30:0 31:1 32:0 33:0 34:0 35:1 36:0 37:1999 38:0.56243849 39:0 40:0 41:0 42:0 43:1 44:0 45:0 46:0 47:1 48:0 49:0 50:0.2 51:0 52:0 53:0.2 54:0 55:0.80000001 56:0 57:0.2360765 58:0 59:1 60:0.0088409362 61:1 62:0 63:0 64:0 65:0 66:0 67:0 68:2002.6 69:0.5153361 70:0.86735862 71:0 72:0 73:1 74:0 75:0.20002179 76:0 77:1 78:1 79:0 80:0 81:2005 82:0 83:0 84:0 85:0 86:0 87:0 88:1 89:0 90:1 91:0 92:0 93:0 94:0 95:0 96:0 97:0 98:0 99:0.2 100:0 101:0 102:0 103:0.2 104:0 105:0 106:0 107:0.40000001 108:0 109:1 110:0 111:0 112:0 113:0 114:0 115:0 116:0 117:0 118:0 119:0 120:0 121:0 122:1 123:0 124:0 125:0 126:0 127:1 128:0.76041019 129:0 130:0 131:0 132:0 # 
0.0063000000000000000444089209850063 1:0 2:0 3:0 4:0 5:0 6:0 7:0 8:0 9:1 10:0 11:0.30953363 12:0 13:0 14:1 15:0 16:0 17:1 18:0 19:0 20:0 21:0 22:0 23:0 24:0 25:0 26:0 27:1 28:0 29:1 30:0 31:1 32:0 33:0 34:0 35:1 36:1 37:2003 38:0.32361746 39:0 40:0 41:0 42:1 43:0 44:0 45:0 46:0 47:0 48:1 49:0 50:1 51:0 52:0 53:0 54:0 55:0 56:1 57:0.2448536 58:0 59:0 60:0.028134389 61:0 62:0 63:0 64:0 65:0 66:0 67:0 68:2003 69:0.71432906 70:0.90871948 71:0 72:1 73:1 74:0 75:0.19637038 76:0 77:1 78:1 79:0 80:1 81:2003 82:0 83:0 84:0 85:0 86:0 87:0 88:1 89:0 90:1 91:0 92:0 93:0 94:0 95:0 96:0 97:0 98:0 99:0 100:0 101:0 102:1 103:0 104:0 105:0 106:0 107:0 108:0 109:0 110:0 111:0 112:0 113:1 114:0 115:0 116:0 117:0 118:0 119:1 120:0 121:0 122:1 123:0 124:0 125:0 126:0 127:0 128:0.76626408 129:0 130:0 131:0 132:0 # 
-0.0060000000000000001249000902703301 1:0 2:0 3:0 4:0 5:0 6:1 7:1 8:1 9:1 10:0 11:0.33215755 12:0 13:0 14:1 15:0 16:0 17:1 18:1 19:0 20:0 21:0 22:0 23:0 24:1 25:0 26:0 27:1 28:1 29:0 30:0 31:1 32:0 33:0 34:0 35:1 36:1 37:1993 38:0.34847105 39:0 40:0 41:0 42:1 43:0 44:0 45:0 46:1 47:0 48:1 49:0 50:1 51:0 52:0 53:0 54:0 55:0 56:1 57:0.40519479 58:0 59:0 60:0.0095450543 61:0 62:0 63:0 64:1 65:0 66:0 67:0 68:1996.3334 69:0.6549198 70:0.83587319 71:0 72:1 73:1 74:1 75:0.18827671 76:0 77:0 78:0 79:0 80:1 81:1998 82:0 83:1 84:0 85:0 86:0 87:0 88:0 89:0 90:1 91:1 92:0 93:1 94:0 95:0 96:1 97:1 98:0 99:0.33333334 100:0 101:0 102:0.33333334 103:0.33333334 104:0 105:0 106:1 107:0 108:0 109:1 110:0 111:0 112:0 113:0 114:1 115:0 116:0 117:0 118:0 119:1 120:0 121:1 122:1 123:0 124:0 125:0 126:1 127:0 128:0.77759266 129:1 130:1 131:0 132:0 # 
-0.0060000000000000001249000902703301 1:0 2:0 3:0 4:0 5:0 6:0 7:0 8:0 9:0 10:0 11:0.35611513 12:0 13:0 14:0 15:0 16:1 17:0 18:0 19:0 20:0 21:0 22:0 23:0 24:0 25:0 26:0 27:1 28:0 29:0 30:0 31:1 32:0 33:0 34:0 35:1 36:0 37:2006 38:0.36964217 39:0 40:1 41:0 42:0 43:0 44:0 45:0 46:0 47:0 48:1 49:0 50:1 51:0 52:0 53:0 54:1 55:0 56:0 57:0.92817354 58:0 59:0 60:0 61:0 62:0 63:0 64:0 65:0 66:0 67:0 68:2006 69:0 70:0.89181495 71:0 72:0 73:1 74:0 75:0.1126247 76:0 77:1 78:0 79:0 80:0 81:2006 82:0 83:0 84:0 85:0 86:1 87:0 88:1 89:0 90:1 91:0 92:0 93:0 94:0 95:0 96:0 97:0 98:0 99:0 100:0 101:0 102:0 103:0 104:0 105:0 106:0 107:0 108:0 109:1 110:0 111:0 112:0 113:0 114:0 115:0 116:0 117:0 118:0 119:0 120:0 121:0 122:1 123:0 124:0 125:0 126:0 127:0 128:0.67910367 129:0 130:0 131:0 132:0 # 
0.0063000000000000000444089209850063 1:0 2:0 3:0 4:0 5:0 6:0 7:0 8:0 9:0 10:0 11:0.37244028 12:0 13:0 14:0 15:0 16:0.5 17:0.5 18:0 19:0 20:0 21:1 22:0 23:0 24:1 25:0 26:0 27:0 28:1 29:1 30:0 31:1 32:0 33:0 34:0 35:1 36:0 37:2006 38:0.37930384 39:0 40:1 41:0 42:0 43:0 44:0 45:0 46:0 47:1 48:0 49:0 50:0.5 51:0 52:0 53:0.5 54:0 55:0 56:0 57:0.4135468 58:0 59:1 60:0.058749884 61:0 62:0 63:0 64:0 65:0 66:0 67:0 68:2006 69:0 70:0.75934786 71:0 72:0 73:1 74:0 75:0.53499919 76:0 77:0 78:0 79:0 80:1 81:2006 82:0 83:1 84:0 85:0 86:1 87:1 88:0 89:0 90:0 91:0 92:0 93:0 94:0 95:1 96:1 97:0 98:0 99:0 100:0 101:0 102:0 103:0 104:0 105:0.5 106:1 107:0 108:0 109:0 110:0 111:0 112:0 113:0 114:0 115:0 116:0 117:1 118:0 119:0 120:0 121:0 122:1 123:0 124:0 125:0 126:0 127:0 128:0.7845735 129:0 130:0 131:0 132:0 # 
0.0063000000000000000444089209850063 1:0 2:0 3:0 4:0 5:0 6:0 7:0 8:0 9:1 10:0 11:0.31797254 12:0 13:0 14:1 15:0 16:1 17:0 18:0 19:0 20:0 21:0 22:0 23:0 24:0 25:0 26:0 27:0 28:1 29:1 30:0 31:1 32:0 33:0 34:0 35:0 36:1 37:2006 38:0.34118414 39:0 40:1 41:0 42:0 43:0 44:0 45:0 46:0 47:0 48:1 49:0 50:1 51:0 52:0 53:0 54:0 55:0 56:0 57:0.38632247 58:0 59:0 60:0 61:0 62:0 63:0 64:0 65:0 66:0 67:0 68:2006 69:0.48280427 70:0.87175417 71:0 72:1 73:0 74:0 75:0.45787719 76:0 77:0 78:0 79:0 80:1 81:2006 82:0 83:0 84:0 85:0 86:1 87:0 88:0 89:0 90:1 91:0 92:0 93:1 94:0 95:0 96:0 97:0 98:0 99:0 100:0 101:1 102:0 103:0 104:0 105:0 106:0 107:0 108:0 109:0 110:0 111:0 112:0 113:0 114:0 115:0 116:0 117:1 118:0 119:1 120:0 121:1 122:0 123:0 124:0 125:0 126:0 127:0 128:0.87566012 129:1 130:0 131:0 132:0 # 
0.0063000000000000000444089209850063 1:0 2:0 3:0 4:0 5:0 6:0 7:0 8:0 9:0 10:0 11:0.21384224 12:0 13:0 14:0 15:0 16:0.5 17:0.5 18:0 19:0 20:0 21:0 22:0 23:0 24:0 25:0 26:0 27:0 28:0 29:0 30:0 31:1 32:0 33:0 34:0 35:0 36:1 37:2003 38:0.22824985 39:0 40:1 41:0 42:0 43:0 44:0 45:0 46:0 47:0 48:0 49:0.5 50:0.5 51:0 52:0 53:0 54:0 55:0 56:0 57:0.22575903 58:0 59:0 60:0.12551215 61:0 62:0 63:0 64:0 65:0 66:0 67:0 68:2005 69:0.41761065 70:0.82407105 71:0 72:1 73:0 74:0 75:0.24677451 76:0 77:0 78:0 79:1 80:0 81:2007 82:0 83:0 84:0 85:0 86:0 87:0 88:0 89:0 90:1 91:0 92:0 93:0 94:0 95:0 96:0 97:0 98:0 99:0 100:0 101:0 102:0 103:0 104:0.5 105:0.5 106:0 107:0 108:0 109:1 110:0 111:0 112:0 113:0 114:0 115:0 116:0 117:0 118:0 119:0 120:0 121:0 122:0 123:0 124:0 125:0 126:0 127:0 128:0.73861408 129:0 130:0 131:0 132:0 # 
-0.0060000000000000001249000902703301 1:0 2:0 3:0 4:0 5:0 6:1 7:0 8:0 9:1 10:0 11:0.27456445 12:0 13:0 14:0 15:1 16:0 17:1 18:1 19:0 20:0 21:0 22:0 23:0 24:0 25:0 26:0 27:0 28:0 29:0 30:1 31:1 32:0 33:0 34:0 35:0 36:0 37:2004 38:0.28219908 39:0 40:0 41:0 42:0 43:0 44:0 45:0 46:0 47:0 48:0 49:0 50:1 51:0 52:0 53:0 54:0 55:0 56:1 57:0.31224373 58:1 59:0 60:0.0043703904 61:0 62:1 63:0 64:0 65:0 66:0 67:1 68:2004 69:0.37952334 70:0.91603893 71:0 72:0 73:0 74:0 75:0.49954709 76:0 77:0 78:0 79:0 80:0 81:2004 82:0 83:0 84:0 85:0 86:0 87:0 88:0 89:0 90:1 91:0 92:0 93:0 94:0 95:1 96:0 97:0 98:0 99:0 100:0 101:0 102:0 103:0 104:0 105:0 106:1 107:0 108:1 109:0 110:1 111:0 112:1 113:0 114:0 115:0 116:0 117:0 118:0 119:1 120:0 121:0 122:0 123:0 124:0 125:0 126:0 127:0 128:0.87943077 129:0 130:0 131:0 132:0 # 
-0.0060000000000000001249000902703301 1:0 2:1 3:0 4:0 5:0 6:0 7:0 8:0 9:0 10:0 11:0.19639745 12:0 13:0 14:0 15:0 16:1 17:0 18:0 19:0 20:0 21:0 22:0 23:0 24:0 25:0 26:0 27:0 28:0 29:0 30:0 31:0 32:0 33:0 34:0 35:0 36:0 37:1989 38:0.20445023 39:1 40:0 41:0 42:0 43:0 44:0 45:0 46:1 47:0 48:0 49:0 50:0.66666669 51:0 52:0 53:0 54:0 55:0 56:0 57:0.47580847 58:0 59:0 60:0.010668002 61:1 62:0 63:0 64:1 65:1 66:0 67:0 68:1999.6666 69:0.32311213 70:0.65368652 71:0 72:0 73:1 74:0 75:0.33991104 76:0 77:0 78:0 79:0 80:0 81:2005 82:0 83:1 84:0 85:0 86:0 87:0 88:0 89:0 90:0 91:0 92:0 93:0 94:0 95:1 96:0 97:0 98:0 99:0.33333334 100:0 101:0 102:0 103:0 104:0 105:0.33333334 106:0 107:0.33333334 108:0 109:0 110:0 111:0 112:0 113:0 114:0 115:0 116:0 117:0 118:0 119:0 120:1 121:0 122:0 123:0 124:1 125:0 126:0 127:0 128:0.16500093 129:0 130:0 131:0 132:0 # 
0.0063000000000000000444089209850063 1:0 2:0 3:0 4:0 5:1 6:0 7:1 8:1 9:1 10:0 11:0.25446963 12:0 13:0 14:1 15:1 16:1 17:0 18:0 19:0 20:0 21:0 22:0 23:1 24:0 25:0 26:1 27:1 28:0 29:0 30:0 31:1 32:0 33:0 34:0 35:1 36:1 37:2004 38:0.25670788 39:0 40:0 41:0 42:0 43:0 44:0 45:0 46:0 47:0 48:1 49:0 50:1 51:0 52:0 53:0 54:0 55:0 56:1 57:0.49461603 58:0 59:1 60:0.069653101 61:0 62:0 63:0 64:1 65:0 66:0 67:1 68:2004 69:0.6765489 70:0.94105685 71:0 72:1 73:0 74:0 75:0.17471513 76:0 77:0 78:1 79:0 80:0 81:2004 82:0 83:0 84:0 85:0 86:0 87:0 88:1 89:0 90:1 91:0 92:0 93:0 94:0 95:0 96:0 97:0 98:0 99:0 100:0 101:1 102:0 103:0 104:0 105:0 106:1 107:0 108:0 109:1 110:0 111:1 112:1 113:0 114:0 115:1 116:0 117:0 118:0 119:1 120:0 121:0 122:1 123:0 124:0 125:0 126:1 127:0 128:0.64497554 129:0 130:0 131:0 132:0 # 
-0.0060000000000000001249000902703301 1:0 2:0 3:0 4:0 5:0 6:0 7:0 8:0 9:0 10:0 11:0.3239249 12:0 13:0 14:1 15:0 16:0 17:1 18:0 19:0 20:0 21:0 22:0 23:0 24:0 25:0 26:0 27:0 28:0 29:0 30:0 31:1 32:0 33:0 34:0 35:0 36:1 37:1996 38:0.34499675 39:0 40:0 41:0 42:0 43:0 44:0 45:0 46:0 47:0 48:0 49:0.33333334 50:0.33333334 51:0 52:0 53:0 54:0 55:0.33333334 56:0 57:0.38674423 58:0 59:0 60:0.012291724 61:0 62:0 63:0 64:0 65:0 66:0 67:0 68:2003.6666 69:0.56609803 70:0.89170521 71:0 72:0 73:0 74:0 75:0.23911116 76:0 77:0 78:1 79:0 80:0 81:2009 82:0 83:0 84:0 85:0 86:0 87:0 88:0 89:0 90:1 91:0 92:0 93:0 94:0 95:0 96:0 97:0 98:0 99:0.33333334 100:0.33333334 101:0 102:0 103:0 104:0 105:0 106:0 107:0.33333334 108:0 109:0 110:0 111:0 112:0 113:0 114:0 115:0 116:0 117:0 118:0 119:0 120:0 121:0 122:0 123:0 124:0 125:0 126:0 127:0 128:0.77085429 129:0 130:0 131:0 132:0 # 
-0.0060000000000000001249000902703301 1:0 2:0 3:0 4:0 5:0 6:0 7:0 8:0 9:0 10:0 11:0.24077874 12:0 13:0 14:0 15:0 16:0.33333334 17:0.66666669 18:0 19:0 20:0 21:0 22:0 23:0 24:0 25:0 26:0 27:0 28:1 29:0 30:0 31:1 32:0 33:0 34:0 35:0 36:0 37:1992 38:0.26394275 39:0 40:0 41:0 42:0 43:0 44:0 45:0 46:0 47:0 48:0 49:0 50:0.33333334 51:0 52:0 53:0.33333334 54:0 55:0.33333334 56:0 57:0.32341942 58:0 59:0 60:0.0054933382 61:0 62:0 63:0 64:0 65:0 66:0 67:0 68:1998.6666 69:0.38272327 70:0.68925768 71:0 72:1 73:1 74:0 75:0.20144728 76:0 77:0 78:0 79:0 80:0 81:2002 82:0 83:0 84:0 85:0 86:0 87:1 88:0 89:0 90:1 91:0 92:0 93:0 94:1 95:1 96:0 97:0 98:0.33333334 99:0 100:0.33333334 101:0 102:0 103:0 104:0 105:0 106:0 107:0 108:0 109:0 110:0 111:0 112:0 113:0 114:0 115:0 116:0 117:0 118:0 119:1 120:0 121:0 122:0 123:0 124:0 125:0 126:0 127:0 128:0.6950472 129:1 130:0 131:1 132:0 # 
-0.0060000000000000001249000902703301 1:0 2:0 3:0 4:0 5:0 6:0 7:1 8:0 9:1 10:0 11:0.21702015 12:0 13:0 14:1 15:0 16:0 17:1 18:1 19:0 20:0 21:0 22:0 23:0 24:0 25:0 26:0 27:1 28:0 29:1 30:1 31:1 32:0 33:0 34:1 35:1 36:1 37:1997 38:0.22085232 39:0 40:0 41:0 42:0 43:0 44:0 45:0 46:0 47:0 48:1 49:0 50:0.5 51:0 52:0 53:0 54:0 55:0.5 56:0 57:0.366191 58:0 59:1 60:0.018892834 61:0 62:0 63:0 64:0 65:0 66:0 67:1 68:2001.5 69:0.66036969 70:0.89464206 71:0 72:1 73:0 74:0 75:0.11407918 76:0 77:1 78:1 79:0 80:1 81:2006 82:0 83:0 84:1 85:0 86:0 87:0 88:1 89:0 90:1 91:1 92:0 93:1 94:0 95:0 96:0 97:1 98:0 99:0 100:0 101:1 102:0 103:0 104:0 105:0 106:1 107:0 108:0 109:1 110:0 111:0 112:0 113:0 114:1 115:0 116:0 117:0 118:0 119:0 120:0 121:0 122:1 123:1 124:0 125:0 126:0 127:0 128:0.67562056 129:0 130:0 131:0 132:0 # 
-0.0060000000000000001249000902703301 1:0 2:1 3:0 4:0 5:0 6:0 7:0 8:0 9:0 10:0 11:0.44108325 12:0 13:0 14:0 15:0 16:0.5 17:0.5 18:0 19:0 20:0 21:0 22:1 23:0 24:0 25:0 26:0 27:0 28:0 29:0 30:0 31:0 32:0 33:0 34:0 35:0 36:0 37:1993 38:0.45495772 39:0 40:0 41:0 42:0 43:0 44:0 45:1 46:0 47:0 48:0 49:0 50:0 51:0 52:0 53:0 54:0 55:1 56:0 57:0.5029847 58:0 59:0 60:0.018505873 61:1 62:0 63:0 64:0 65:1 66:0 67:0 68:1993 69:0 70:0.75897026 71:0 72:0 73:0 74:0 75:0.19935805 76:0 77:0 78:0 79:0 80:1 81:1993 82:0 83:0 84:0 85:0 86:0 87:0 88:0 89:0 90:0 91:0 92:0 93:0 94:0 95:0 96:0 97:0 98:0 99:0 100:0 101:0 102:0 103:1 104:0 105:0 106:0 107:0 108:0 109:0 110:0 111:0 112:0 113:0 114:0 115:0 116:0 117:0 118:0 119:1 120:1 121:0 122:0 123:0 124:0 125:0 126:0 127:0 128:0.64474618 129:0 130:0 131:0 132:0 # 
0.0063000000000000000444089209850063 1:1 2:0 3:0 4:0 5:0 6:0 7:0 8:0 9:0 10:0 11:0.55371404 12:0 13:0 14:0 15:0 16:1 17:0 18:0 19:1 20:0 21:0 22:1 23:0 24:0 25:0 26:0 27:0 28:0 29:0 30:0 31:0 32:0 33:0 34:0 35:0 36:0 37:2004 38:0.59750164 39:0 40:0 41:0 42:0 43:0 44:0 45:0 46:1 47:0 48:0 49:1 50:0 51:0 52:0 53:0 54:0 55:0 56:0 57:0.42704216 58:0 59:0 60:0.0064645363 61:1 62:0 63:0 64:0 65:0 66:0 67:0 68:2004 69:0 70:0.61510754 71:0 72:0 73:1 74:0 75:0.22299638 76:0 77:0 78:0 79:0 80:0 81:2004 82:0 83:1 84:0 85:0 86:0 87:0 88:0 89:0 90:0 91:0 92:0 93:0 94:0 95:0 96:0 97:0 98:0 99:0 100:0 101:0 102:0 103:0 104:0 105:0 106:1 107:1 108:0 109:0 110:0 111:0 112:0 113:0 114:0 115:0 116:0 117:0 118:0 119:0 120:0 121:0 122:0 123:0 124:0 125:0 126:0 127:0 128:0.59347337 129:0 130:0 131:0 132:0 # 
0.0063000000000000000444089209850063 1:0 2:0 3:0 4:0 5:0 6:0 7:0 8:0 9:0 10:0 11:0.80721503 12:0 13:0 14:0 15:0 16:0 17:1 18:0 19:0 20:0 21:1 22:0 23:0 24:0 25:0 26:0 27:0 28:0 29:0 30:0 31:1 32:0 33:0 34:0 35:0 36:0 37:2004 38:0.82477552 39:0 40:0 41:0 42:1 43:0 44:0 45:0 46:0 47:0 48:0 49:0 50:1 51:0 52:0 53:0 54:0 55:0 56:0 57:0.4066613 58:0 59:0 60:0.0088318307 61:0 62:0 63:1 64:0 65:0 66:0 67:0 68:2004 69:0 70:0.87764072 71:0 72:0 73:0 74:1 75:0.24659814 76:0 77:0 78:0 79:0 80:0 81:2004 82:0 83:1 84:0 85:0 86:0 87:0 88:0 89:0 90:1 91:0 92:0 93:0 94:0 95:0 96:0 97:0 98:0 99:0 100:0 101:0 102:0 103:0 104:0 105:0 106:1 107:0 108:1 109:0 110:0 111:0 112:0 113:0 114:0 115:0 116:0 117:1 118:0 119:1 120:0 121:0 122:0 123:0 124:0 125:0 126:0 127:0 128:0.73915023 129:0 130:0 131:0 132:0 # 
0.0063000000000000000444089209850063 1:0 2:0 3:0 4:0 5:0 6:0 7:0 8:0 9:0 10:0 11:0.34450278 12:0 13:0 14:0 15:0 16:0 17:1 18:0 19:0 20:0 21:0 22:0 23:0 24:0 25:0 26:0 27:0 28:0 29:0 30:0 31:0 32:0 33:0 34:1 35:0 36:0 37:2007 38:0.35652569 39:0 40:0 41:0 42:0 43:0 44:0 45:0 46:0 47:0 48:0 49:0 50:1 51:0 52:0 53:0 54:0 55:0 56:0 57:0.60648489 58:0 59:0 60:0.021260129 61:0 62:0 63:0 64:0 65:0 66:0 67:0 68:2007 69:0 70:0.83664775 71:0 72:0 73:0 74:0 75:0.28592053 76:0 77:0 78:0 79:1 80:0 81:2007 82:1 83:0 84:0 85:0 86:0 87:0 88:0 89:0 90:1 91:0 92:0 93:0 94:0 95:1 96:0 97:0 98:0 99:0 100:0 101:0 102:0 103:0 104:0 105:0 106:0 107:1 108:0 109:0 110:0 111:0 112:0 113:0 114:0 115:0 116:0 117:0 118:0 119:0 120:0 121:0 122:0 123:0 124:0 125:0 126:0 127:0 128:0.50405926 129:0 130:0 131:0 132:0 # 
0.0063000000000000000444089209850063 1:0 2:0 3:0 4:0 5:0 6:0 7:1 8:0 9:0 10:0 11:0.27610385 12:0 13:0 14:0 15:0 16:0.5 17:0.5 18:0 19:0 20:0 21:0 22:0 23:0 24:0 25:0 26:0 27:1 28:0 29:0 30:0 31:1 32:0 33:0 34:0 35:1 36:1 37:2007 38:0.2871373 39:0 40:0 41:0 42:0 43:0 44:0 45:0 46:0 47:0 48:1 49:0 50:0.5 51:0 52:0 53:0 54:0 55:0 56:0 57:0.74656248 58:0 59:0 60:0 61:0 62:0 63:0 64:0 65:0 66:0 67:0 68:2007 69:0.52549714 70:0.90108049 71:0 72:0 73:0 74:0 75:0.10952081 76:0 77:1 78:0 79:0 80:0 81:2007 82:0 83:0 84:0 85:1 86:0 87:0 88:1 89:0 90:0 91:0 92:0 93:0 94:0 95:0 96:0 97:0 98:0 99:0.5 100:0 101:0 102:0 103:0 104:0 105:0.5 106:0 107:0 108:0 109:0 110:0 111:1 112:0 113:1 114:0 115:0 116:0 117:0 118:0 119:0 120:0 121:0 122:1 123:1 124:0 125:0 126:0 127:0 128:0.70811605 129:0 130:0 131:0 132:0 # 
0.0063000000000000000444089209850063 1:1 2:0 3:0 4:0 5:0 6:0 7:0 8:0 9:0 10:0 11:0.56245935 12:0 13:0 14:0 15:1 16:0 17:1 18:1 19:0 20:0 21:1 22:0 23:0 24:0 25:0 26:1 27:0 28:0 29:1 30:1 31:0 32:0 33:0 34:1 35:0 36:0 37:2006 38:0.6226415 39:0 40:0 41:0 42:0 43:0 44:0 45:0 46:1 47:0 48:0 49:0 50:1 51:0 52:0 53:0 54:0 55:0 56:1 57:0.44385818 58:0 59:1 60:0.010971501 61:0 62:0 63:1 64:0 65:0 66:0 67:0 68:2006 69:0.34092274 70:0.79195631 71:0 72:0 73:0 74:1 75:0.23972987 76:1 77:0 78:0 79:1 80:0 81:2006 82:0 83:1 84:0 85:0 86:0 87:0 88:1 89:0 90:0 91:0 92:1 93:0 94:0 95:0 96:1 97:0 98:0 99:0 100:0 101:1 102:0 103:0 104:0 105:0 106:1 107:0 108:0 109:0 110:1 111:1 112:1 113:0 114:0 115:1 116:0 117:0 118:0 119:0 120:0 121:0 122:0 123:0 124:0 125:0 126:0 127:0 128:0.76134187 129:0 130:0 131:0 132:1 # 
-0.0060000000000000001249000902703301 1:0 2:0 3:0 4:0 5:1 6:1 7:0 8:1 9:1 10:0 11:0.29100826 12:0 13:0 14:1 15:0 16:0 17:1 18:1 19:0 20:0 21:0 22:0 23:0 24:0 25:0 26:0 27:1 28:0 29:0 30:1 31:1 32:1 33:0 34:0 35:0 36:1 37:2008 38:0.30722186 39:0 40:0 41:0 42:0 43:0 44:0 45:0 46:0 47:0 48:1 49:0 50:1 51:0 52:0 53:0 54:0 55:0 56:0 57:0.16680579 58:0 59:1 60:0.10570882 61:1 62:0 63:0 64:1 65:0 66:0 67:0 68:2008 69:0.68957222 70:0.92641789 71:0 72:1 73:0 74:0 75:0.18001556 76:0 77:0 78:1 79:0 80:1 81:2008 82:0 83:0 84:0 85:0 86:0 87:0 88:0 89:0 90:1 91:0 92:0 93:0 94:0 95:0 96:0 97:0 98:0 99:0 100:0 101:0 102:0 103:0 104:0 105:0 106:1 107:1 108:0 109:1 110:0 111:0 112:1 113:0 114:0 115:0 116:0 117:1 118:0 119:1 120:1 121:0 122:0 123:0 124:0 125:1 126:0 127:0 128:0.6980387 129:1 130:0 131:0 132:0 # 
-0.0060000000000000001249000902703301 1:0 2:0 3:0 4:0 5:0 6:0 7:1 8:0 9:0 10:0 11:0.36126798 12:0 13:0 14:1 15:0 16:0 17:1 18:0 19:0 20:0 21:0 22:0 23:0 24:0 25:0 26:0 27:0 28:0 29:0 30:0 31:1 32:0 33:0 34:0 35:0 36:0 37:2005 38:0.39236176 39:0 40:0 41:0 42:0 43:0 44:0 45:0 46:0 47:0 48:0 49:0 50:1 51:0 52:0 53:0 54:0 55:0 56:0 57:0.19213222 58:0 59:0 60:0.013338796 61:0 62:0 63:0 64:0 65:0 66:0 67:0 68:2005 69:0.5114243 70:0.84315395 71:0 72:1 73:0 74:0 75:0.2154852 76:0 77:0 78:0 79:0 80:0 81:2005 82:0 83:0 84:0 85:0 86:0 87:0 88:0 89:0 90:1 91:0 92:0 93:0 94:0 95:0 96:0 97:0 98:1 99:0 100:0 101:0 102:0 103:0 104:0 105:0 106:1 107:0 108:0 109:0 110:0 111:0 112:0 113:0 114:0 115:0 116:0 117:0 118:0 119:0 120:0 121:0 122:0 123:0 124:0 125:0 126:0 127:0 128:0.64652753 129:1 130:0 131:0 132:0 # 
0.0063000000000000000444089209850063 1:0 2:0 3:0 4:0 5:0 6:0 7:1 8:0 9:1 10:0 11:0.48255622 12:0 13:0 14:0 15:0 16:0 17:1 18:0 19:0 20:0 21:1 22:0 23:0 24:0 25:0 26:1 27:0 28:0 29:0 30:1 31:1 32:0 33:0 34:0 35:1 36:0 37:2001 38:0.49543267 39:0 40:0 41:0 42:0 43:0 44:0 45:1 46:0 47:1 48:1 49:0.33333334 50:0.66666669 51:0 52:0 53:0 54:0 55:0 56:0 57:0.45527887 58:0 59:1 60:0.014067194 61:0 62:0 63:0 64:0 65:0 66:0 67:0 68:2004.6666 69:0.4651072 70:0.90813857 71:0 72:0 73:0 74:0 75:0.54623264 76:0 77:1 78:1 79:0 80:0 81:2009 82:0 83:0 84:0 85:0 86:0 87:0 88:1 89:0 90:0 91:0 92:0 93:0 94:0 95:0 96:0 97:0 98:0 99:0 100:0.66666669 101:0 102:0 103:0.33333334 104:0 105:0 106:1 107:0 108:0 109:0 110:0 111:0 112:1 113:0 114:0 115:0 116:0 117:0 118:0 119:0 120:0 121:0 122:1 123:0 124:0 125:0 126:0 127:0 128:0.91454315 129:0 130:0 131:0 132:0 # 
-0.0060000000000000001249000902703301 1:0 2:0 3:0 4:0 5:0 6:0 7:0 8:0 9:1 10:0 11:0.29206255 12:0 13:0 14:0 15:0 16:0 17:1 18:0 19:0 20:1 21:0 22:0 23:0 24:0 25:0 26:0 27:0 28:0 29:1 30:0 31:1 32:0 33:0 34:0 35:0 36:1 37:1998 38:0.30952504 39:0 40:1 41:0 42:0 43:0 44:0 45:0 46:0 47:0 48:0 49:0 50:1 51:0 52:0 53:0 54:0 55:0 56:1 57:0.48133856 58:0 59:0 60:0.022580352 61:0 62:0 63:0 64:0 65:0 66:0 67:0 68:1998 69:0.21508032 70:0.86340839 71:0 72:1 73:1 74:0 75:0.49563131 76:0 77:0 78:0 79:0 80:0 81:1998 82:0 83:0 84:0 85:0 86:1 87:0 88:0 89:0 90:1 91:0 92:0 93:0 94:0 95:0 96:0 97:0 98:0 99:1 100:0 101:0 102:0 103:0 104:0 105:0 106:1 107:0 108:0 109:0 110:0 111:0 112:0 113:0 114:0 115:0 116:0 117:0 118:0 119:0 120:0 121:0 122:0 123:0 124:0 125:0 126:0 127:0 128:0.79412693 129:0 130:0 131:0 132:0 # 
0.0063000000000000000444089209850063 1:0 2:0 3:0 4:0 5:0 6:0 7:0 8:0 9:0 10:0 11:0.36672223 12:0 13:0 14:0 15:0 16:0 17:1 18:0 19:0 20:0 21:0 22:0 23:0 24:0 25:0 26:0 27:0 28:0 29:0 30:0 31:1 32:0 33:0 34:0 35:0 36:0 37:2001 38:0.37298635 39:0 40:0 41:0 42:0 43:0 44:0 45:0 46:0 47:0 48:0 49:0 50:1 51:0 52:0 53:0 54:0 55:0 56:0 57:0.3320103 58:0 59:0 60:0 61:1 62:0 63:0 64:0 65:0 66:0 67:0 68:2005.3334 69:0 70:0.88363057 71:0 72:0 73:0 74:0 75:0.5032813 76:0 77:0 78:0 79:0 80:0 81:2009 82:0 83:0 84:0 85:0 86:0 87:0 88:0 89:0 90:0 91:0 92:0 93:1 94:1 95:0 96:0 97:0 98:0.66666669 99:0.33333334 100:0 101:0 102:0 103:0 104:0 105:0 106:0 107:0 108:0 109:0 110:0 111:0 112:0 113:0 114:0 115:0 116:0 117:0 118:0 119:0 120:0 121:0 122:1 123:0 124:0 125:0 126:0 127:0 128:0.91220945 129:0 130:0 131:0 132:0 # 
-0.0060000000000000001249000902703301 1:0 2:0 3:0 4:0 5:0 6:0 7:0 8:0 9:1 10:0 11:0.22746931 12:0 13:0 14:0 15:0 16:0 17:1 18:0 19:0 20:0 21:0 22:0 23:0 24:0 25:0 26:0 27:0 28:1 29:0 30:0 31:0 32:0 33:0 34:0 35:0 36:0 37:2005 38:0.23672089 39:0 40:0 41:0 42:0 43:0 44:0 45:0 46:0 47:0 48:0 49:0 50:1 51:0 52:0 53:0 54:0 55:0 56:0 57:0.28151497 58:0 59:0 60:0 61:0 62:0 63:0 64:0 65:0 66:0 67:0 68:2005 69:0.2876434 70:0.78155798 71:0 72:0 73:0 74:0 75:0.44506603 76:0 77:0 78:0 79:0 80:0 81:2005 82:0 83:0 84:0 85:0 86:0 87:0 88:0 89:0 90:1 91:0 92:0 93:0 94:0 95:0 96:0 97:0 98:1 99:0 100:0 101:0 102:0 103:0 104:0 105:0 106:0 107:0 108:0 109:0 110:0 111:0 112:0 113:0 114:1 115:0 116:0 117:0 118:0 119:0 120:0 121:0 122:0 123:0 124:0 125:1 126:0 127:0 128:0.83996725 129:0 130:0 131:0 132:0 # 
0.0063000000000000000444089209850063 1:0 2:1 3:0 4:0 5:0 6:0 7:0 8:0 9:0 10:0 11:0.28756449 12:0 13:0 14:1 15:0 16:0 17:1 18:0 19:0 20:0 21:0 22:0 23:0 24:0 25:0 26:0 27:0 28:1 29:0 30:0 31:1 32:0 33:0 34:0 35:0 36:1 37:2003 38:0.30148342 39:0 40:0 41:1 42:1 43:0 44:0 45:0 46:0 47:0 48:0 49:0 50:1 51:0 52:0 53:0 54:0 55:0 56:0 57:0.39625564 58:0 59:0 60:0.17231175 61:0 62:0 63:0 64:1 65:0 66:0 67:0 68:2003 69:0.73399091 70:0.8287667 71:0 72:0 73:0 74:0 75:0.1126247 76:0 77:0 78:0 79:0 80:1 81:2003 82:1 83:0 84:0 85:0 86:0 87:1 88:0 89:0 90:1 91:0 92:0 93:1 94:0 95:0 96:0 97:0 98:0 99:0 100:0 101:1 102:0 103:0 104:0 105:0 106:0 107:0 108:0 109:0 110:0 111:0 112:0 113:0 114:0 115:0 116:0 117:0 118:0 119:0 120:0 121:0 122:0 123:1 124:0 125:0 126:0 127:0 128:0.67910367 129:0 130:0 131:0 132:0 # 
-0.0060000000000000001249000902703301 1:0 2:0 3:0 4:0 5:0 6:0 7:0 8:0 9:0 10:0 11:0.14332451 12:0 13:0 14:0 15:0 16:0.5714286 17:0.42857143 18:0 19:1 20:0 21:0 22:0 23:0 24:0 25:0 26:0 27:1 28:0 29:0 30:0 31:1 32:0 33:0 34:0 35:1 36:0 37:1992 38:0.14587045 39:0 40:0 41:0 42:0 43:0 44:0 45:0 46:0 47:0 48:0 49:0.14285715 50:0.14285715 51:0.14285715 52:0 53:0 54:0 55:0 56:0 57:0.45749792 58:0 59:0 60:0.0037482169 61:0 62:0 63:0 64:0 65:0 66:0 67:0 68:2000.5714 69:0.62103492 70:0.91438198 71:0 72:0 73:0 74:0 75:0.24659814 76:0 77:0 78:0 79:1 80:0 81:2007 82:0 83:0 84:0 85:0 86:0 87:0 88:1 89:0 90:0 91:0 92:0 93:0 94:0 95:0 96:0 97:0 98:0 99:0.2857143 100:0 101:0.14285715 102:0 103:0 104:0 105:0.2857143 106:0 107:0.2857143 108:0 109:0 110:0 111:0 112:0 113:0 114:0 115:0 116:0 117:0 118:0 119:0 120:0 121:0 122:1 123:0 124:0 125:0 126:0 127:0 128:0.73915023 129:0 130:0 131:0 132:0 # 
-0.0060000000000000001249000902703301 1:0 2:0 3:0 4:0 5:0 6:0 7:0 8:0 9:0 10:0 11:0.18988812 12:0 13:0 14:0 15:0 16:0.2 17:0.80000001 18:0 19:0 20:0 21:1 22:0 23:0 24:0 25:0 26:0 27:1 28:0 29:0 30:0 31:1 32:0 33:0 34:0 35:1 36:0 37:1997 38:0.19682498 39:0 40:0 41:0 42:0 43:0 44:0 45:1 46:0 47:0 48:0 49:0 50:0.80000001 51:0 52:0 53:0 54:0 55:0 56:0 57:0.48014259 58:0 59:0 60:0.0082400069 61:0 62:0 63:0 64:0 65:0 66:0 67:0 68:2005.4 69:0.49727091 70:0.91815734 71:0 72:0 73:0 74:0 75:0.24987541 76:0 77:1 78:0 79:0 80:0 81:2009 82:0 83:0 84:0 85:0 86:0 87:0 88:1 89:0 90:0 91:0 92:0 93:0 94:0 95:0 96:0 97:0 98:0 99:0 100:0.2 101:0 102:0.2 103:0.60000002 104:0 105:0 106:0 107:0 108:0 109:0 110:0 111:0 112:0 113:0 114:0 115:0 116:0 117:0 118:0 119:0 120:0 121:0 122:1 123:0 124:0 125:0 126:0 127:0 128:0.74449193 129:0 130:0 131:0 132:0 # 
